0,184647326;-1,247599939;-0,094627614;0,440657744;-1,144119312;0,328422332;-0,533861667;0,158696011;-0,469149079;-0,045611138;-0,266283914;-0,738574232;-1,223210201;0,192555266;0,010547366;-1,076019974;0,218812906;0,42940006;0,235796494;0,449261823;1,061201297;0,048276915;0,24321665;0,067546809;0,215045421;-0,502887392;-0,440882314;-0,763887207;0,252986149;1,006479036;-1,306296205;0,539175238;1,051178055;0,667338427;-0,124832098;-0,087671098;0,648239238;0,525523504;-0,355513208;-0,118303365;1,31998534;-0,096792551;1,225741775;0,900107148;-0,201976651;-0,798595539;0,216344349;-0,825859267;-0,718899992;-1,829736247;1,007372016;-0,031049443;0,179614762;0,082806619;0,291002388;0,018135221;-0,273686432;-1,59891557;0,366704619;-0,328616337;0,160555106;-0,242606094;-0,74103257;-0,000974518;-0,262345494;-1,060202033;0,934577336;0,650665322;0,284086628;0,084733996;1,363510402;0,707679668;1,555297342;-0,403457954;-0,076978093;-0,419622476;0,644043965;0,518838427;0,533776043;-0,828581228;-2,044729229;-1,517106019;1,177593332;-0,632021837;0,766604686;-0,05575087;0,399499164;0,530668831;-0,953966473;-1,212736463;0,047125966;0,66403627;0,289875897;0,146503693;-1,650909876;-1,144273755;-0,160937413;-0,519377208;-0,422921938;-0,173685448;-0,819265164;0,167311988;-0,586993906;0,181911488;-0,009682328;-0,535759537;0,786846751;0,750929007;-0,527574909;-0,019464759;0,974564379;1,435481263;0,389125616;0,404904111;0,048410879;0,152247509;-0,337898368;-0,12963633;-0,191908836;0,488830664;0,100521362;-0,250016814;0,223994874;-0,13144562;0,070420043;1,02727958;-0,582077679;0,089230324;0,745016176;-1,810354398;0,549567729;-0,430905546;0,300699111;0,415983928;-1,115775741;-0,317951601;-0,988511677;-1,493600519;0,021584579;0,093890867;-1,11167467;-0,350433874;0,889336648;0,078457945;0,315304322;1,032489848;0,027455456;-0,057204395;-0,820698047;-0,761934961;-0,06335139;0,103919743;-0,222569922;-0,79830466;-1,437293477;-0,47777565;-0,089045572;0,260631038;0,386231604;0,683422489;-0,154553456;-0,679493239;-0,123268023;-0,844607084;0,707546722;0,043730115;-0,501100729;1,086978959;-0,535262021;-1,789483796;-1,007763886;0,344603023;-0,311037068;0,377538322;-0,68320279;1,663152065;0,634688974;1,583484073;0,319190112;-0,259312474;-0,083160015;1,104843592;-0,561392653;-0,036598084;0,196230314;0,348959184;0,675050713;0,27472038;-0,576829692;-0,804695333;-0,22819259;-0,050660113;-0,336453465;0,284767401;1,316482564;-1,01201182;-0,084430185;0,198170887;0,428539506;-1,307430457;-0,071500655;-0,634739486;0,300280807;0,719154705;-0,854169951;0,103735738;0,959186275;0,358240931;-0,107105108;0,458117107;0,152822346;-0,494648103;-0,550970023;-1,522723554;0,824582867;0,142971269;0,206891751;0,676196794;-1,014314011;-0,032510529;-0,054959262;-1,978707896;-0,148013847;-0,468987937;-0,409154728;-1,250860927;-0,724435213;-0,571674391;-1,154198326;0,49197202;0,686747429;-0,553707845;-0,557667775;0,603175529;-0,501173217;-0,873880135;-0,675031822;-0,6477603;0,270212962;-1,059370087;-0,330182083;-0,193950483;-0,088200292;0,434577799;0,141283395;-0,799266229;0,729899063;-0,865484683;0,324018401;0,014142371;0,479071708;-0,773521497;-0,837121165;0,30683538;0,665834858;-0,339286009;-0,023335761;0,241970274;2,275815954;0,514248699;1,412319434;-1,273937535;-0,116352304;-0,00385559;0,019840786;-0,240524586;-0,732361147;1,036669552;0,256502241;0,376830446;-1,745971942;0,349193743;1,139217384;-0,050667335;1,669274222;-0,715210614;0,127500266;-0,600233815;1,158797831;1,542517364;-0,479717854;-0,520276243;-0,297561694;-0,765662312;-0,375370577;0,528894206;0,418480697;0,585853645;0,723324855;-1,490915109;-0,030574193;0,685427997;0,326421505;-0,874206795;0,985659826;0,614266658;-1,370355554;1,40696183;-0,988857843;-0,450416284;0,122243401;-0,344661623;-0,716463418;-0,743794575;0,988892858;0,447660916;-0,454151978;0,132271072;0,262889373;-0,024209472;0,757926619;-0,528453659;-0,967020368;-0,002918151;0,334866833;0,792523358;1,378401899;0,382329741;-0,12236227;0,183642957;-0,221300952;-0,481529832;0,014568809;0,5314067;-0,291227624;-0,528967897;1,157393574;-0,026397724;-0,004757877;-0,37055561;0,741192198;1,683076359;0,716280402;-0,254412382;-0,713079246;0,834949058;0,887731753;-1,308966502;-0,207723748;-0,718350679;0,925813894;-0,724661676;-0,579712456;-1,181177576;0,599123886;-0,665483047;0,603433766;-0,260884837;-0,517370783;0,292624447;0,455076449;-1,796195684;-0,14106269;-0,662194837;1,562859126;0,618783071;-0,143529356;-1,082267733;-1,150815099;-0,662020173;-0,629957687;0,213372493;0,216830191;-1,215314472;-0,208687354;-1,476384479;-1,093855002;1,229154907;0,85276352;-0,545026587;-0,896683284;0,254580641;-1,166940338;-0,208272543;1,255348026;0,700994662;-0,71368744;-0,12795365;-1,609266416;-0,591496555;1,028082397;-1,022845425;0,502024358;-0,175927343;-0,953275036;0,398832909;0,222659733;0,060097329;-0,721157371;0,142837778;-0,971325132;-1,785050223;0,033349882;-0,105534527;0,364006984;-0,29011039;0,211769448;0,547165419;0,952761511;0,161836112;0,336136725;1,025290573;0,896909419;0,637998515;-0,205440116;-0,054320756;-0,018983757;0,45511725;-1,846174386;-0,677488329;-0,006672394;0,160196739;1,00091657;-0,287898427;-0,97290531;0,033575581;-0,599631862;1,186771269;1,085797538;0,220477462;0,51295284;-0,682454506;-0,497173602;0,20414609;1,902929263;0,174187851;-0,908451222;-0,495226672;0,425502297;0,687005903;-0,524710341;-1,113969301;-0,069800896;-0,743954938;-0,530686865;-0,38228973;-0,787646074;0,999845783;0,262468683;1,060776382;0,200524324;-0,802739839;0,009665247;-0,954102262;0,253629617;-0,299010385;-0,574077037;-0,804471431;-0,229501086;-0,728207977;0,76528065;-0,187626252;0,240569321;0,385279641;1,180148087;-0,92827026;-0,228022373;0,895404727;-1,241850808;0,238675684;-0,260180667;-0,522583312;1,59800736;-0,980470296;-0,723911003;0,543758644;0,592826198;0,746232471;-0,210223849;-0,618706128;-1,251034893;0,019603033;-0,484914377;-0,657007961;-0,638745929;0,022240787;-0,844356533;-0,04118369;-0,499663811;0,905697644;0,161681516;0,322671362;-0,232008262;-0,357505567;-0,597827935;0,14973729;-0,417567785;1,72540799;0,190242736;1,280239137;0,500992284;0,37048513;-0,444484764;-0,916388217;0,662386239;0,059721272;1,565292687;-0,060543811;-0,771378352;0,936093611;0,128417213;-1,343683911;0,256917931;1,074278121;-0,686520799;-1,043860569;-0,520920892;-0,415976409;0,102766608;-0,237978367;-0,954250132;0,395372183;-1,089364158;-0,592410454;0,825004032;0,75606929;1,193246008;-0,023361019;0,275365346;0,366980408;-1,049837048;-1,044051655;-0,70932516;-0,962607196;-0,00142867;-1,400736461;-1,349571971;-0,145074403;0,486961864;0,489224334;0,875897033;-0,157474465;-0,713361839;-1,377994744;-0,759392822;-0,841764147;-0,100578428;-0,177343911;-0,044290775;0,161126738;-0,30015256;1,534170588;0,548820611;0,223071592;0,283394186;-0,23306941;1,061152075;1,551247925;0,015486224;-1,483038239;0,318074354;0,854051725;-0,28235241;-0,248186348;1,496009076;-0,928108018;0,67907942;-0,147342328;0,70968126;-0,804988581;-1,335838891;-0,400021173;0,102300902;-1,095035463;-1,387960079;-1,226179323;-0,343973501;-1,382555665;0,264616209;1,286246833;-0,92790438;-0,348145152;-0,234533064;1,05151236;-0,244614843;0,307690414;-0,252078435;0,810093549;0,1892403;0,955988862;-0,560906488;-0,259029842;0,394452695;-0,670406756;-1,113938815;-0,926431953;0,142547047;-0,886536963;0,801357248;-0,634294475;-0,015465235;-0,990438826;-0,227670787;0,15141205;-0,572823022;0,180278037;0,276416719;0,05348687;-0,225752041;-0,239801805;0,229175742;0,016123399;-0,018606154;0,947450584;-0,764570721;-0,489371272;0,467467681;-0,85168624;0,09909269;0,428715277;0,017591569;-0,644975882;0,258526802;0,464370607;-0,256367659;0,404739378;1,087771163;0,434108234;0,003143626;-0,629542931;-0,43789463;-0,182009167;1,19790836;0,222661121;-0,110335682;-0,656441062;0,751812405;-0,241664845;-0,589808363;-1,087466077;-0,411648205;0,042903413;0,020673842;-0,326935501;-0,554514977;-0,244279467;-0,451194245;-0,491680402;-1,277961636;0,327557857;0,16578358;0,253366189;0,670639313;0,419904378;-0,446092831;0,782368535;-0,07149726;-0,241436989;-0,159415913;-0,578887736;0,425265467;1,165986908;-0,212808017;-0,223724702;0,432017901;-0,359638916;-0,553382572;-0,462007968;-0,905224076;0,419157837;0,524800541;-0,079958787;0,885726738;-0,790534433;-0,698842602;0,628352511;-0,728244232;-0,064217229;0,021632332;0,381391113;1,198902059;0,370081531;1,151619246;-0,342805139;-1,484207073;0,335719839;-0,07138476;0,440135977;-0,164527261;-0,120538239;0,597772802;-0,707834672;0,446136299;-0,710308337;0,687453633;1,39012734;0,006155563;-0,672537141;-0,559277142;0,75233101;0,23349231;1,059071344;0,254183437;-0,186608773;0,438187352;0,674387423;-0,163338093;0,970262553;-0,498225386;-0,409989783;-0,332930324;-0,357361147;0,143772301;-0,041705812;-0,81494647;-0,149415706;0,406988046;-0,890616806;-0,914773787;0,45158195;-0,390949834;1,270206553;-0,405021844;0,844284976;-0,370625774;-0,581929254;-0,513419005;-0,589417513;-0,477115726;0,163031439;1,075477309;-0,177163679;0,784658946;0,735307769;1,109961948;0,165798585;-2,49109141;-0,76169649;-1,028895648;0,393938315;-1,154847453;0,926792555;0,185147141;-0,468484409;0,031677535;-1,6650049;0,628527156;-0,296396602;0,188650029;0,187107859;0,637353921;0,338812546;0,445698403;-0,204491015;1,129981251;2,409795316;-0,069299704;0,151806039;-0,499404784;-1,204268744;-1,134901745;1,279988154;-0,419475384;-0,054869798;-0,390508214;0,081119702;0,288063763;0,342524093;-0,399996398;-1,923884882;-1,148997872;-0,079033796;-0,562615614;0,241275717;-0,122893613;1,002047118;-1,315316976;0,662138769;-0,109885803;0,041290334;-1,022676573;-1,316087382;-0,251640703;-0,778640739;-0,739546219;-0,132823768;-0,867870062;-0,238892671;0,596101422;-1,635021119;-1,095041586;-0,05678358;-0,377250324;0,3963232;0,293252079;0,374696044;-0,51810483;-0,881527561;-0,914119955;-0,664118427;-0,00256303;0,650396216;0,860951515;0,52196017;0,399690472;-0,159864877;0,200163096;0,564066302;0,761704225;-0,3680039;-0,295221803;-0,5580797;0,470274786;-0,520243929;0,691576283;0,148600297;-0,15375867;1,245136986;-0,162053621;-0,604488601;0,771620052;-0,698495103;0,632550983;-0,335830425;-1,020887613;0,041293497;-0,339147785;-0,228956856;2,000879625;0,349633325;-0,888314423;0,012424013;0,466172216;0,182371602;-0,165158388;0,381144997;-0,586114828;-0,857128358;0,374912489;-0,305357773;0,184874213;-1,595185126;0,474713519;-1,488207739;1,450952248;0,099719549;-0,496198906;-0,120440627;-0,085698082;0,020198618;-1,20694709;0,064253534;0,590247798;1,239114514;-0,704422143;0,588725899;-0,058202582;-0,876912833;-2,471567962;0,564555139;-1,133080915;0,476737888;-0,13124492;-0,379228901;-0,930563449;-0,813126631;0,581453975;2,037553456;0,888483763;0,73381768;-0,370434373;0,32814224;-0,86731841;-0,352690233;0,405445993;-0,079148235;0,607220623;-0,337995243;0,682201211;-0,151330885;-0,238315156;-0,491196578;-0,056478968;0,704945919;-0,174053866;-0,625618769;0,520955272;-0,803685518;-0,702953281;-1,508827277;-0,056318248;-1,565452037;-0,409383121;0,733654848;1,584619872;0,782760686;0,601505919;0,033415004;0,344167729;0,873280047;-0,72070652;-1,424324178;0,270088306;-1,143245687;-1,832843124;-0,752120095;-0,845159696;0,636106654;-0,618049881;0,051733043;-0,284814441;0,222548543;-0,606738323;-0,233003495;-1,686571703;-0,685810157;1,669832725;-0,445577029;0,128148593;0,861473473;-0,195027115;0,922348945;1,077676841;0,436423174;0,572863908;0,405311414;-0,437735962;-0,90733493;-0,908684563;-0,423990287;1,440494816;0,459605011;-0,557198768;-1,213836103;-0,364020583;-0,048939539;-0,846507065;0,144367807;0,435566253;1,549411192;-0,638340893;-0,917790353;-1,205492077;1,019398171;-1,442329329;-0,89415922;0,745028688;1,223446241;0,132996512;-0,864417815;0,22918255;-0,891723594;-0,133465569;-0,026665352;-0,453840417;-0,808836205;0,236419645;0,683242714;-0,792007064;-0,153137968;0,593858838;0,345300542;0,780486041;-0,402532078;0,962258179;-0,528534493;-0,47059578;1,079966429;0,5176303;0,591579085;1,372991998;-0,028249059;0,559497317;-1,186785259;0,428748074;0,33347775;0,349922812;0,230204672;0,174481988;-0,969594923;-0,128325878;0,831005618;0,081169814;-1,93891287;0,403243237;1,024429827;0,661493899;0,239097818;0,016625809;-0,476137706;-0,635137617;-0,846315233;0,854598724;1,870243096;0,006707071;-0,192566661;-0,244116987;0,712994509;-1,598548324;-0,053302575;-0,035932485;-0,714122986;-0,827086065;-1,254206224;-0,156392892;-0,126084136;0,810796155;0,011018863;0,62661807;0,543207304;-1,698909434;1,732725709;0,953468636;-0,838177783;0,645424031;-0,777966478;-0,641212231;-1,772417862;-0,964602438;0,70288698;-1,55932526;-0,484935168;-0,038361765;1,616448283;0,70821107;-0,434208676;-0,624824175;0,426449452;0,308083363;0,59298698;0,004030052;0,490315195;0,063063369;0,165212;-0,787156571;-0,975915055;0,097266694;-0,419540991;-0,43548009;0,031751246;0,297925258;0,434995268;1,137687676;0,270005431;0,893476543;-0,483148393;1,982716949;0,213699923;-0,798821973;-0,687906499;0,58650512;-0,800162025;-2,256005821;-0,611847044;0,196993455;0,110933235;0,172419455;1,095145065;-0,799783346;0,795606334;0,956423832;-0,022704394;0,30333063;-0,006516738;0,366960182;-1,000728297;-0,262844221;-0,696157154;-2,003687216;-0,778758573;-0,62940136;1,400891265;-1,234159654;0,721874369;0,65540116;0,57701836;-0,67772878;0,150064726;-0,264988174;0,276196986;0,327853518;0,070256012;0,266538308;0,332530887;0,194296602;0,156178962;-0,547300695;0,607474891;0,637215139;-0,912426313;0,342813523;0,776726925;-0,052035533;0,677439131;0,250860256;0,101154443;-0,863697338;-0,604913751;-0,197882405;0,553482551;-0,832899022;-0,804542348;-1,357446331;0,481025032;0,340292163;-1,461116973;-0,996744582;-0,396986188;-0,158584949;0,576485022;0,015978645;0,750295226;0,689991469;-1,465359268;-0,525165662;0,356649355;0,620807196;-0,909016271;0,713839105;0,951132156;0,246014802;-0,061886449;-0,704354704;1,127711214;0,137354011;0,567009619;-0,028574027;0,376490175;-0,280085462;0,518414407;0,67438248;-1,523162461;-1,118698739;-0,632394369;0,005585246;-0,162464142;-0,034191507;0,498348804;0,72525678;-0,374672993;-0,640023902;-1,40645669;0,208126077;-0,535786474;0,07690147;0,742057267;-0,161270013;-1,081874068;1,062631212;-0,680835333;-0,149270834;0,474556367;0,119181894;-0,603968329;0,389595335;1,014677205;1,905332809;-0,618286426;-0,83159752;-0,41206584;-0,166945242;0,075435513;-0,795243057;0,340345754;-1,312073386;-0,337682347;0,343762359;-1,882974016;0,281820642;-0,12944248;-0,656284189;0,201883963;0,440458477;0,129203784;-0,574751701;0,40046417;-0,238612167;1,894681563;1,21911008;-0,108361343;-0,9057775;-1,253978655;-0,801117472;-1,087228505;-0,235581774;0,32321112;-0,252134334;1,051962812;1,399922733;0,767035539;-0,337795077;-1,460042952;1,097669567;-1,611733748;-0,949836505;-0,160426763;-0,387635375;0,508775238;-0,787506676;-0,31950338;2,10071984;0,28111631;-0,315977118;-0,663730329;-2,235217838;-0,031353927;-0,507244407;-0,160546877;-0,092902531;-0,020704957;-0,254640208;0,917302744;-0,300056166;1,619574157;-0,062158016;-1,791967672;-0,602239677;-0,325820921;-0,903523187;-0,845032229;-1,278643411;-0,561151502;-1,26363657;1,205411694;0,5195417;0,513154983;0,767546635;0,039087398;0,011336143;-1,176706912;0,837757007;-0,194317401;0,570401419;-0,002495237;-0,134974515;0,722069512;1,020820191;-0,398247157;0,796424247;0,60269702;-0,57182891;-0,728550121;-1,625068386;0,879034105;0,040447235;0,592882424;-0,132249957;-1,009444582;-0,614726242;-0,999127466;-1,403202568;1,184368025;-0,66131975;-0,816443842;-0,34594509;0,518346069;0,72225064;-1,030920883;-0,620340757;-1,116734132;2,053044234;-0,495738371;-0,212820837;0,398161155;0,052096619;-0,389521902;-0,277862792;0,21273629;1,983955629;1,385390347;0,346498224;-1,051249354;0,379638197;-1,010771314;-1,55395654;0,259585928;-0,003081595;0,393474899;0,924280795;0,790821068;-0,479455525;-0,741873476;-0,219196195;-0,256528343;-0,836617139;0,333956711;0,700378655;0,185730712;-0,183223079;1,371512414;-0,924011916;-1,723541511;-1,247698349;-0,270405511;0,461930467;-1,138797583;0,732014328;0,588014429;-0,179936662;0,251631165;-0,528507873;-0,023082669;-0,942862134;0,355340249;1,229127802;1,065543195;-0,295393908;0,03218842;0,091548831;-0,455274172;-0,003282878;-0,116934006;-0,163799623;-1,718512925;0,556352506;-0,632677445;0,687703852;-1,352760108;-0,324693776;0,097790681;0,341076117;0,201093252;-0,644000781;-1,848089473;0,017139513;-0,066434453;0,693740164;-0,623160683;0,345015779;0,614838316;1,573452849;-0,22783038;0,30241673;9,94E-05;-0,690689848;0,457612874;-0,520442751;-0,859511724;-0,087382648;-0,373300089;0,750647094;-0,194401869;0,165825021;0,403660444;-0,725299471;-0,424851929;-0,378089663;0,451393509;0,441193888;1,014471097;-0,23195811;0,741849181;-0,06492065;0,896239861;0,391612761;-0,206541803;0,590369123;-1,260056456;-1,336895692;0,405066834;-0,914439264;0,555540289;-1,482554895;-0,342558421;-0,089148433;0,956411999;1,476826001;0,006028945;-0,175642256;-0,262602693;-1,638462768;0,462037423;1,012807754;-0,011445472;-0,825509651;-0,521402504;0,032988828;0,490051764;-0,164207056;-0,145102659;0,203823099;1,054082831;0,319894486;-0,0462835;-0,057480741;-0,987967571;-0,621278698;-0,000793574;-0,073341676;0,404926813;-0,028283326;0,308128049;-0,400584979;-2,640982124;0,256543674;0,414175147;0,410015719;-0,683391728;0,015848995;-0,295949092;-0,855944025;-0,015372031;0,078361656;0,00170339;-0,402868312;0,744900546;-0,922716098;0,204352108;0,281980489;-0,826406949;-0,252812342;0,061464687;-0,632182821;-0,607084024;-0,155954187;0,639598193;-0,599078305;-0,602570828;-0,815974097;-0,947121979;0,216763718;0,272695365;0,295667121;0,0998844;1,531080382;-0,212104289;-1,18028156;-0,185334453;0,744100061;-0,021365424;0,593150618;1,15586411;-0,347704235;0,25260851;0,804974952;-0,848325856;-1,131023598;-0,159265945;-1,162385711;1,890314737;-0,460113416;-0,236311287;-0,166046486;0,307200513;1,652092868;0,693183822;-0,466038004;-0,499711705;0,163026126;-0,022428933;-0,663326354;0,319785757;0,780789762;-0,535852435;1,144932148;0,591029706;-0,175341124;0,340181099;0,908600431;-0,464328362;-0,075210353;0,269199939;0,281103419;-1,247094867;-0,104334591;-0,564305981;0,006265261;-0,555502704;0,418610053;-0,266563871;-0,914865535;-0,258956333;-0,441840076;0,186557139;1,622257638;0,488127441;-0,951740687;-0,270944318;-0,545898876;-0,181593581;-0,087592291;-0,447615675;1,476914916;-0,675809577;-0,230289753;-0,105285118;-0,504748271;0,159554358;1,289322038;-0,26300124;0,595470808;-0,423960429;0,04325052;0,051103459;1,068808435;0,754623161;0,628725299;1,660349261;-0,230925143;-0,219323587;0,17010283;-0,292922114;-0,14387444;-1,839808024;0,340903407;0,591010721;-1,349018877;-1,06289553;-1,156883373;1,925214606;0,577229421;-0,6447801;0,325703658;-0,333404299;-0,683505545;0,028602583;-0,498067272;-1,818764576;-0,431667173;0,209934553;-0,388687159;-0,649259511;0,384342392;0,412902617;-0,263855717;-1,219184756;-0,052110997;1,129278612;-1,188229397;1,289827172;0,488963065;-0,212098948;0,582375084;-1,674205166;0,2604453;-0,308129601;-0,298648684;-0,816454902;0,1008476;0,053000662;-0,866565426;0,014456755;-0,236746982;0,741664054;0,240472537;0,569526314;-0,339949986;1,200921188;0,396764296;-0,246613328;1,090743775;0,557592459;-0,711959817;-1,346450277;-1,278570557;-0,007530531;0,228396184;-0,228677891;-0,02167699;-0,374234681;0,572465134;0,37419964;-0,356983645;0,216591977;-0,178743432;1,531051668;-0,369796329;-0,876926109;0,168357577;0,118680096;-0,079854844;0,460594192;0,925869932;0,774777153;-0,559193587;-0,191280647;-1,287755902;0,490872423;0,778957387;-0,645912818;-0,455140275;-0,596673445;-0,02623628;-0,447959097;0,552434189;-0,69710578;1,212482572;0,669671291;-0,945848977;1,230520701;-0,706545933;-0,067092241;-0,562135166;-0,675087364;-0,469886245;0,554179296;0,572045952;-0,014251409;0,5994453;0,923344539;-0,316353899;-0,403610721;0,136470053;0,762912128;-0,099030073;0,156900041;-0,851925018;0,454765341;0,577781359;-0,097734323;0,043654197;-0,412367141;-0,395467972;0,961430727;0,992635056;-0,526287601;-0,413495656;1,212022146;-0,821842163;0,504503662;-1,689889006;0,231506075;0,35041325;1,034369304;0,128322372;-0,858872678;0,467960817;0,464561339;-0,292619535;1,04961572;-0,21191553;-1,538814585;-0,726618883;-0,415162279;-0,295689807;-0,606707026;-0,570120325;1,044598564;-0,908361162;-1,406600219;0,095527922;-0,901626806;-0,972334856;0,780952035;-0,173499789;-0,269494887;0,710780487;-0,347183658;-0,610641765;0,125083497;0,055115936;-0,414525143;-0,140842265;-0,221628746;0,614420686;-0,375278084;-1,290362089;-1,507461637;0,257002834;-0,318248681;-0,213739334;0,069514225;0,086866791;-0,49543611;0,105085942;0,246615848;0,174959737;-0,353971401;-0,126686308;-0,377485526;-0,716587061;0,101832764;-0,152443738;0,702487734;-0,924964568;-0,227468335;-0,65276358;0,388617285;0,268227972;0,516388328;-0,45559344;0,214365435;-0,265896995;0,135725401;0,028228626;-0,898234056;0,127851571;0,175360071;0,745090212;-0,233594464;-0,281975095;-0,332727283;-0,044592212;0,282308751;0,187663722;-0,457215279;0,534758847;-0,24397857;0,015050551;0,192145149;-0,13397013;-0,317761322;0,062436092;0,383199542;-0,178697656;-0,523407001;-0,537408767;-0,08136564;0,256535202;-0,559870729;0,134721472;-0,071825946;-0,221065441;0,28703547;-0,77810495;0,11756039;-0,424515911;-0,144487618;-0,358669312;-0,452339458;-0,018495484;0,073631601;-0,248793343;0,090711324;-0,350001446;-0,268173962;-0,006570915;0,154316246;0,343004264;-0,365541092;0,306888805;-0,205339206;-0,197257431;-0,322941459;-0,418738053;-0,767342625;-0,189954527;-0,001859976;-0,179718314;-0,191439889;-0,839056244;-0,564507101;0,160839472;0,043591988;0,030064004;-0,21217433;-0,554581603;-0,21575024;0,157192541;-0,737045516;-0,602160144;0,312413022;-0,568325651;-0,389065588;-0,067059117;-0,125156355;0,081083105;0,016235839;1,347169403;1,82668022;-0,837760589;0,573081593;-0,860415915;-0,783640653;-0,783466198;-0,348320411;0,193209586;-0,426337651;-0,005878396;0,045820218;1,330780166;0,64712047;-0,004613945;-0,787027751;-0,805310112;0,074444565;-0,226397296;0,851963031;0,814767603;0,301918858;-0,042727873;-0,906031367;-0,840679071;0,312556552;-0,011572987;-0,143625065;0,506176107;-0,872264311;-0,716249937;-0,23712626;-0,339025258;0,600395848;-0,086276121;0,608216168;0,093408696;0,729874623;0,504583929;-0,609773934;-0,02020647;-1,277448686;0,51816732;0,780481427;-0,580161511;1,429623685;-0,132860486;-0,93993703;-0,169316189;0,065086706;-0,332995823;-0,1704455;-0,18235023;-0,064343741;-0,581672993;-0,06462001;0,007547531;-0,546897701;-1,074735598;-1,162213248;-0,918112608;1,025557686;-0,307707954;-0,075967184;-0,11410464;-0,549851586;-0,540860307;-1,268556649;-0,783715188;0,361272717;1,727283943;-0,439385606;0,122966591;-0,559238918;-0,883335101;-0,118371291;1,544484371;0,007537503;-0,963524597;0,124801335;-0,743794359;-0,004122442;-0,077113024;0,368710778;0,159212871;0,27249245;1,124527218;1,256930452;0,171772476;-0,2467812;0,590184972;-0,917880933;-0,630990264;-0,615956915;-0,055726001;-0,005902205;-0,235573413;-0,639069736;-2,225922852;-1,405193982;0,886381153;-1,135933658;-0,679066866;-1,376701527;-0,712622866;-0,843237693;0,14875916;0,361511439;0,073155632;-0,411398122;-0,003111591;0,557932437;0,077616441;0,087079343;-0,688987026;0,182639377;0,085033678;0,373169199;-1,035849202;0,968095194;0,86864152;-0,167592321;-1,785476318;0,067227705;0,55502912;-1,031965666;0,434345813;-1,118131365;1,152281067;-0,076692823;0,736049601;-0,642551268;-0,328820489;0,378988318;-1,147362824;0,022153923;1,797985083;1,361886869;-0,508406706;0,491150592;0,072608894;0,739898273;0,25696677;1,433417563;0,438547689;0,034647572;-1,323273547;0,611692136;0,719892766;-0,705072546;0,072222926;0,093036968;-0,446723875;0,255196914;-0,207053482;-0,749104498;-0,067092565;-0,240561844;-0,596308774;0,160001851;-0,437655791;1,067677787;-0,30836343;-0,07622209;-0,266471697;-0,976099006;0,177644876;1,368199055;0,567283041;-0,387833045;0,868421999;-0,494291644;-1,695121328;-0,337274054;0,255103702;0,026522957;1,226762607;-0,349246538;-0,346228129;0,863871733;-1,733277665;2,702920727;1,033830719;-0,945287788;-1,016135333;0,152054237;0,442979874;-1,14833986;0,507890694;0,204828484;-1,085597261;-0,098122312;1,12125439;-0,738549638;-0,402348214;-0,956636716;0,449532387;0,621291831;-0,064109048;-0,35621598;1,105213365;-0,911387855;-0,465003349;0,074956144;-0,743140551;0,339237509;1,981579009;0,27318073;-0,55484747;0,116471972;0,001024024;-0,863236955;-1,153700994;0,460312634;0,396871828;-1,870355955;0,031636568;0,162092492;0,527608755;-1,421348429;0,553844049;0,041896051;0,311503408;0,350892886;0,431785129;-0,781226506;0,924594081;-0,653783162;-1,584758499;0,557427865;1,270135755;0,674204894;-0,906301262;-0,210009333;-0,100503748;0,238732878;-0,567877908;-1,071884633;0,038768867;-0,148738152;0,08884899;0,014337697;0,696600464;0,736502463;0,02633936;-0,572627902;-0,878865544;0,763211386;-0,800236966;1,579359046;-0,972299778;0,088369649;0,93980857;-0,306756538;-0,553222867;1,449174115;0,74115291;0,413219649;-0,615003502;-0,613503018;-0,084847011;-0,649539826;0,47259426;-0,003852924;0,19020571;0,637988115;-1,027330418;-0,118445111;0,801388705;0,007450322;-1,930953404;0,817655053;0,499941564;0,257873652;1,012935676;-0,523040385;0,478643596;0,029476379;-0,311026615;-0,28676321;-1,263184746;-0,106529518;1,060035068;-1,721583038;-1,392718572;-0,561659089;-0,905043775;-0,869485807;0,681528047;-0,91572571;-1,689090503;-0,917719679;-0,794822278;0,624651108;0,572850175;1,421718322;2,171414589;-0,163718814;0,58594655;-0,084004782;0,205771821;-0,302305296;0,239639435;-1,697688363;1,461134138;-1,734377873;0,493137108;-0,369649931;0,052730943;0,705164196;0,078664347;0,077765658;0,019964245;-0,45009262;-0,102625535;0,404147914;-1,22161397;0,468374888;-0,709577828;-0,038629476;-0,432313549;0,478967764;-0,306106908;-1,115320783;-1,466767998;-0,064067934;-0,059070097;-0,322444019;0,052689564;0,607438906;0,67068544;-0,260104084;0,071053434;1,171616457;-0,563929984;-0,229027725;0,896667015;-0,548405621;-0,180779972;1,130353063;-0,204216524;0,575425092;-0,101092431;-0,595627097;0,225468183;-0,766040534;-1,93814138;-0,482473686;0,056692756;-0,518149741;-0,308797337;0,388638927;1,24683265;1,24013007;1,283293516;-1,356026963;-0,025086971;0,566869328;-0,491098284;-0,720636932;1,648049249;0,777208536;1,737022891;-2,192044007;-0,337973118;-0,078906771;0,166831852;0,418552417;0,278403683;0,571164148;0,154419035;-0,497731834;0,61028153;0,069510354;-0,503355081;0,706659811;-0,538353029;-0,834425022;-1,186342798;0,128713671;-1,076523754;-0,173971697;-0,11635702;-0,8120033;-0,638472314;-0,196217388;-1,037396685;0,672310298;-0,085097512;-0,5886252;-0,444465195;-0,932832631;-0,009664023;-0,459473494;-0,341977555;0,535064301;1,158323101;1,192372312;1,364173504;0,449983379;-0,685559077;0,39302561;0,013677175;0,565088459;-1,145544443;-0,609193972;1,096140403;-0,09497494;-0,159695501;0,312970727;0,127934589;0,111632301;-0,78199141;-0,663423163;-0,621716758;-1,286110821;1,659247149;0,768656738;0,232731044;1,273660783;0,435342122;-1,006821014;0,449324154;-0,721611393;-0,114878577;-0,378863597;-0,138030287;-0,801461402;0,720581763;-0,700130569;0,072307907;-0,382957179;0,71867963;0,231549478;-1,021782576;-0,538203309;0,144531178;0,51075601;-0,209683837;-1,069338291;-1,995476875;-0,912771125;-0,807542579;-0,010045999;-1,286124677;0,757294045;-1,604573102;-0,442172098;-0,237564974;2,148931358;0,008021748;-0,842466368;-0,133835916;0,179405106;0,344353022;0,251169898;-0,477895117;-0,433568085;-1,002196635;-0,125029542;-0,241242556;-0,517796197;-0,498347175;0,356221858;0,866524654;-1,224373051;0,351242582;0,713282654;0,146006528;0,122894876;1,850178721;-0,375555754;-2,315292803;1,153222064;-0,034730477;1,39646712;0,243516493;-0,546829105;-1,000839383;-0,168581247;1,390779641;0,041702717;0,542804225;0,507194693;-0,351186568;-1,680022844;1,734180195;0,735655748;0,057249063;0,188577338;0,714309826;-0,742821664;0,145534749;-0,18481526;-0,434508344;1,169625252;0,005396738;0,838383752;-0,653910198;0,643533111;1,657197285;-0,912512015;-0,16218059;-0,690940559;-1,217310646;-0,121106347;-1,336362836;0,284647776;-0,344070787;0,736387067;0,370457498;0,069903298;0,711306966;-0,527869049;-0,898190792;-1,141221623;0,207764307;0,554698944;-0,369326706;-0,418792205;0,005050941;-0,528506203;-1,494747904;-0,853234644;0,488851806;-0,294439028;1,161525709;0,653029872;0,228269788;0,740071217;-1,686139006;-0,912621417;-0,876692191;-0,059610753;-0,543288647;-0,11155645;0,391078852;-0,057152975;1,536365806;0,030119021;0,329679623;0,069160099;0,149737118;-1,015655166;1,169679951;1,707291771;-0,05440013;0,457043334;-1,864141076;0,189082238;-0,709755001;-0,72982848;1,26826381;-0,557491166;-1,559431457;-0,094689804;-1,14152999;-0,303856969;1,538744275;0,038156489;0,575856363;-0,324348219;0,086332133;0,653424742;-1,787953543;-0,85480045;-0,605291366;0,92470967;0,387163985;0,387834406;-0,945940189;0,307191078;-0,668004797;0,29410616;1,286969313;-1,748675802;0,049591349;0,463452039;0,097351589;-0,522871689;-0,131530095;-1,41675911;-0,37117193;0,286590683;-0,375188715;0,121459033;-0,795694592;0,043296744;-0,979032534;-0,259563029;0,040593786;0,880343032;0,215498586;-0,497417082;0,493521626;0,099212119;-0,544204834;-0,406616146;1,128710746;-0,821440014;-0,023290623;-1,139030483;-0,533825107;-0,262455488;0,63754794;0,052317421;-0,072965655;-1,412463758;-0,149822765;1,180513889;0,338464693;-1,234860447;-0,996411663;-0,186452652;-0,057055116;1,304302569;0,031333644;0,059482532;-1,070964872;-0,548036443;0,537154258;0,969047574;0,001446492;-0,110790349;-0,55068282;0,09052311;-0,633276998;-0,635148658;-0,297530994;0,615960492;0,899641541;1,113346201;0,088717137;1,394715337;0,712609326;-1,219548886;-0,292225772;-0,825848863;1,298908609;-1,305573388;-0,341461599;1,000201896;0,922419671;-0,085189265;-0,473872833;0,447144957;0,796852763;0,262611361;-0,457439527;-0,211721751;-1,43915373;-0,010760906;0,339143531;0,06377014;-0,851800551;-0,485535907;-0,702017028;-0,45895675;0,773993236;-0,544344635;0,771011637;-0,97841303;-0,527769347;-0,703991917;-0,41304008;0,06578355;0,351992622;-0,625673726;1,264989907;0,836990331;0,806788949;-0,444839104;0,018748451;0,71579628;-0,830443258;-0,298402654;0,441348321;-0,800235646;-0,842481954;0,138940943;0,594140763;-0,398001619;0,795046508;0,031133954;0,103327957;-0,286379606;0,168036429;0,47676334;0,453711608;-0,813573723;-0,206409108;-0,756508984;0,555412706;0,361713877;-0,595761051;0,210995221;-0,342507499;0,058235043;-0,202165783;1,261881841;0,163538981;0,83128711;-0,977373219;-0,869909202;-0,724116221;0,811333906;0,012946874;-0,654129362;0,393336525;-0,819528785;-0,265701459;-1,237027789;-0,28532261;-0,480407304;0,100080291;0,039722217;-0,916072834;0,017332546;0,887156366;-0,132315315;-0,115613135;0,56709872;-0,802532339;0,175975282;-0,23008184;0,24675641;0,39767416;-0,143849577;-0,499116386;0,105007584;-0,501059537;-0,267152737;-0,471130034;-0,690136846;0,232679843;-0,272812785;0,501279686;-1,155392236;-0,997013057;0,182863494;-0,53295798;-0,186677867;0,34291847;0,290242397;-0,292851855;-0,102632514;0,378668313;0,533736295;0,672482396;0,556741124;0,261107742;0,105363885;1,129238528;-0,401931023;-0,110253916;-0,129973359;-0,786157672;-0,390697878;-0,301532114;-0,531305071;-0,807221039;0,037008309;1,040721406;0,346232974;1,040845987;-0,167609468;0,544374857;-0,385630637;-0,058140081;0,053564387;0,433377376;0,044748209;-0,191595236;0,247487907;-0,732540592;0,320331955;1,437199147;0,332227485;-0,362737385;0,729537475;0,971007842;0,714986609;-1,085810166;1,134087339;-0,78671941;0,958245906;0,38206537;0,232608673;1,022001586;-0,825767838;-0,457421986;-0,220439118;-0,580327295;-0,061875236;0,641420793;0,040507532;-0,881592001;-0,564082491;-0,538079931;1,711098826;0,627661128;-0,373622814;-0,456943471;1,041202454;-0,252790306;-0,912646849;1,105271635;0,370272469;-0,612561389;-0,516689874;-0,711564281;0,016020338;-0,734473511;0,247893411;0,513104637;0,070013019;0,189169526;0,412108378;1,685925555;0,954379737;0,756661842;-0,363245974;-0,577964177;0,193762514;0,530310922;-0,344099344;-0,6244328;-1,304521607;-0,48329654;-0,039237945;-0,966195087;-0,049472853;-1,27494675;-0,164593322;-0,247871255;-1,241839101;-0,011650728;-0,085862582;0,516910238;-0,915810878;0,370865316;-0,291368051;-0,059546314;-0,214848497;-0,482731324;-1,315481298;0,861125374;0,916034516;0,652959549;-0,144903872;-1,346634393;-0,168584029;0,425647279;0,813950009;-1,194374458;0,61443433;-0,610808659;-0,692450109;0,88923893;-0,643280425;-1,20430476;-1,482075526;0,090657192;0,501295137;0,064771504;-1,320381482;-1,642511007;-1,569783455;-0,528190955;1,406544931;0,268488951;0,210694105;1,172080754;0,190908631;1,219617698;-0,263147676;-0,820941812;-0,551168099;0,148768872;0,758652547;-0,666857612;-0,510914868;0,42453135;0,241375381;-0,890760171;0,327323519;-0,233126785;0,754230567;-0,747320072;0,671812796;0,518944064;1,286688132;-0,813763612;1,221860943;0,428462158;0,54282183;-1,06750119;-1,174281407;0,976727238;0,549127205;0,62641996;-0,414268378;-0,207545417;-0,112228715;0,080462176;0,831643498;0,069048797;-1,070548194;-0,524393647;1,242489167;0,922080739;0,023635504;1,081239538;-0,890466189;-0,279531536;0,663089123;-0,42271954;-0,067553686;-0,271973399;0,096586203;0,079735799;0,174605249;-0,183885015;-0,131763911;0,472658226;0,484430659;1,169528258;-0,822565617;0,330665048;0,42788276;-0,616784878;-0,239894822;0,331379501;-2,354213306;-0,042000209;-0,606328841;0,131347001;-0,213216062;-0,499658028;0,743461775;-1,04067058;-0,726175371;-0,6990272;1,320852845;1,402509947;0,377593421;0,607778177;-0,609657062;-1,850044704;0,001749528;0,719797485;-1,345189034;-1,627688067;-0,159509054;0,529014346;-0,372346119;0,47115725;0,591176826;-1,496054347;-1,130263043;-1,01577328;0,265479633;-0,290321214;-0,258047204;-0,811755886;-1,547453518;-1,260081455;-0,061478169;-0,120266149;0,268248165;-0,297514445;-0,701072646;0,239005201;0,174858971;-0,417286581;-0,780889615;-1,271164154;1,230828007;-0,307747274;1,040078637;0,024963227;0,387731511;-0,485738793;-0,639249167;0,51458521;1,039619463;-1,230709798;0,813838951;-0,544340397;0,270489153;-1,290974013;-0,173870126;-0,16585362;0,080297109;0,179525539;-0,119557979;-0,402499906;-1,847622742;-1,147409353;0,2689877;0,432116673;-0,027828192;-0,709233821;-1,699905215;-0,361308039;-0,913748737;1,238558845;0,140501681;-0,315395963;-0,301396594;1,080483072;-0,660790257;-1,242703015;0,447563364;0,86951362;1,373882758;-0,739425313;-0,630440921;-0,299349492;0,644996413;-0,169320405;-0,04281413;-0,009324727;0,011532327;0,425402785;-0,115011441;-0,680466952;-1,008943614;-0,722297844;-0,971861882;0,444007451;-1,172099231;-1,593619053;-0,626190716;1,039672677;-0,353754168;0,935835964;1,049479228;0,335595029;0,039557071;0,430229506;-0,416944231;-1,071258845;-0,451472194;0,502279334;0,829040539;-0,858469312;0,64643381;1,24290746;-0,372105597;0,694321698;-0,921909575;0,208906297;-0,629564503;0,059017824;1,617091757;0,153256188;-0,867060588;0,285058724;0,718831694;0,368370407;0,000552838;1,25116259;0,654162375;-0,380156487;-0,680344043;-0,167616301;-0,126632751;1,325131108;0,196665751;0,562073336;0,603145408;2,19338889;-1,066547467;-1,27000382;-1,435581537;-0,27804744;-0,622972167;-0,093999533;0,575161889;0,008757189;1,463388361;0,921739891;0,277037344;0,57201999;0,211629773;-0,65550472;-0,935446908;-0,589880997;0,692358793;0,011762788;0,736293889;-0,405812186;0,223383255;-0,778320644;0,01939931;0,221875526;0,798457212;0,979512317;-0,488358215;-0,505155927;-0,396599572;0,174599325;-0,196084551;0,338617949;0,971143222;0,637846519;-0,189783568;-0,637891503;-0,383193171;-0,931365379;0,996798314;0,411369781;-0,425901697;-0,097665535;0,090892712;0,013677196;-1,202765129;-1,402503684;-2,012394025;-0,330661349;-0,365278576;-1,834418264;-0,599454374;-0,005454597;-0,543840556;0,603946379;-0,148058289;0,253710517;0,633276286;0,715111716;-0,200611419;-1,778428901;-0,181922647;-0,264725217;-0,481407669;-0,371639774;-0,476577997;-0,579859155;0,517439441;-0,515828119;1,30586448;-0,598931043;0,472157352;-0,736840131;0,040836821;0,244844776;-0,183991921;1,139810022;1,75938266;0,342870059;0,121717346;-0,217968345;0,192942029;0,534451116;-0,844967275;-0,227472713;-0,582373442;-0,001545653;-0,50706223;-1,114459124;-0,358646071;-0,283041098;0,156887367;-0,349749248;-0,273904217;0,393914665;-0,023109405;-0,409093491;-0,593917548;-0,076451545;-0,633885378;-0,679120056;0,118813985;-0,190276326;-0,475625142;0,274093172;-0,407778869;-0,434381838;-0,278508569;-0,310242822;0,297281305;-0,946918914;-0,23665063;-0,388749886;0,002384299;-0,452729184;0,018785269;0,186130277;-0,557615214;0,232168232;0,444881921;-0,103873863;-0,13177795;0,10603214;0,01763362;-0,515939634;-0,595296766;0,188243957;0,750558995;-0,017090711;-0,758642054;0,309554673;-0,480796599;0,244902046;0,023732768;-0,266575664;0,48544341;0,146245996;-1,020763766;-0,340764212;0,514333999;0,657358252;-0,748332452;-0,217862215;0,420436533;0,048491683;-0,197340712;-0,269805029;-0,561780024;-0,180449687;0,422775414;0,285065856;0,15574702;-0,223615058;-0,283140125;-0,796912882;-0,332321506;-0,437608628;-0,019769662;-0,792001533;0,009755802;0,223946071;-0,63726875;-0,220831773;-0,409183406;0,715440318;-0,468532392;0,124747714;-0,363763038;-0,396229732;-0,683306719;0,018429217;0,398512336;-0,174846029;0,206967577;-0,534005419;-0,147741488;-0,182583401;-0,134243093;-0,186347617;0,655952592;0,009791102;-0,049245855;-0,438206558;-0,19156915;-0,522971087;-0,375958856;-0,220781441;-0,016501461;-1,142101387;-0,441264729;-0,076425966;-0,669437635;-0,081825542;0,092419379;0,771755947;0,081238671;-0,196810269;0,821843455;-0,950876336;0,572442712;0,164210515;-0,310016944;0,699532315;1,102100149;-1,614143259;0,200215179;0,453956713;0,31648435;-0,215551819;-0,299754701;0,629696214;0,410703027;-0,356088599;0,290824047;0,104985326;-0,737587594;-0,127791795;0,98789645;0,216952193;-0,951032411;0,955865016;-0,716018908;0,626224649;0,170040824;-0,423610187;-0,780629462;-0,217312617;0,530153718;0,410593502;0,583446284;0,483717113;-0,070521184;-0,057081004;-0,970547817;0,148687247;-0,252791182;0,081046266;0,321166718;-0,807429098;0,345312302;0,515962891;0,642615488;-0,977827103;-0,494851581;-0,014718948;-0,316366091;0,290293513;0,598988583;0,299252007;-0,169794435;-0,404126165;-0,462056511;0,037625412;0,010149146;0,447853223;0,82123328;-0,851181289;-0,200492496;-0,693980244;-0,577378223;-0,1322407;0,34208357;0,712656284;0,075614922;0,415740533;-1,409391967;-0,21762875;0,045015236;-0,700499998;-0,438363299;-0,00770653;0,492704185;0,029720664;0,543727726;0,000518098;-1,579568097;-0,01202933;0,679567528;0,064481764;-1,382607361;-0,118380837;-0,790703456;0,656902425;-0,131699491;-0,880653865;0,204163008;0,606552679;-0,135685729;-0,663699006;0,127435878;-0,395236974;0,003300771;0,277303218;0,02728056;0,543762327;0,202926162;-0,103196224;-1,523708448;-0,239990075;-0,471962186;0,04800278;-1,305563202;-1,154259615;1,027607531;0,732937748;0,025392875;-0,037915395;-0,463496133;0,066120999;0,133367903;-0,605913509;0,189398994;-0,944513714;-0,238483924;-0,430679548;1,132635205;0,364026172;0,367609738;0,488268843;-1,436200672;-0,466556104;0,398411297;-0,860117763;-0,070535811;1,177475553;0,669883979;0,104046974;-0,083865105;0,026902881;-0,091575438;-0,612091375;-1,010309792;0,089417471;0,029515055;-0,126751168;-0,074368348;0,489374211;-0,225747814;-0,221126684;0,336531711;-0,088765272;-0,33070017;-0,987307297;0,135503404;-0,256650722;-0,376439068;-0,946155669;0,368494637;0,11036405;0,041357545;0,483496683;-0,04185436;0,851029588;-0,438118261;0,372600639;0,715982188;-0,73678601;-0,866868198;0,17860351;0,530186766;0,015955016;-0,356029105;0,248990874;0,636265113;-1,241510971;-0,37453901;-0,650967625;-0,341097582;0,438988582;-0,411953456;-0,995499134;1,099003816;0,871388289;-0,829896394;0,442215774;0,717885778;1,188506561;0,510574977;-1,379562336;-0,349504999;0,441320119;0,517758285;0,665876239;0,365228236;0,447827403;0,702816672;0,444934292;0,221448929;-0,368547427;0,140016758;-0,655697234;0,878379182;-1,108162004;-0,202960257;-0,391853241;0,750067588;-0,897498038;-0,386867927;0,03374127;0,048488555;-0,445688289;-1,216285351;0,150417008;0,172887059;0,168229791;-0,700106485;0,080242314;0,04394296;-0,879186826;0,52323669;-0,453097532;-0,102050202;-0,936772796;-0,249746168;1,027553199;0,241724545;-0,62437616;0,886150731;1,796470546;-0,684707192;0,401559387;-0,231572762;-1,733768361;-1,158473265;-0,810116386;-0,228604877;-0,985085259;-0,343111774;1,088963901;-1,479173813;-0,501619956;-0,830141918;0,539703274;-1,229034884;-1,268693906;-0,505014176;0,528819942;0,027667302;-0,043567947;-0,392016339;-1,123490196;-0,035645452;0,154338529;1,1188006;-1,331182055;2,248341284;1,105505841;0,512212829;0,669789299;0,355606347;-0,018376879;1,188038734;-0,203408965;0,288348492;-0,093728334;-0,998555179;0,506486076;1,067645523;0,994017775;0,011308971;-0,723710418;0,115404718;-0,061319864;0,145210018;-0,309979277;-0,611993767;-1,260182279;-0,539574907;-0,333763743;1,046216704;-0,130858027;-0,645025809;-0,178339742;0,403155288;0,576766559;-1,170158593;-0,658793974;0,864261161;0,837044794;0,436519356;1,370732743;-1,783049607;-1,60818257;0,640069637;-0,195521644;0,157961418;0,272736195;-0,210189556;-1,473715223;0,240789322;-0,050824882;-0,033983372;1,164999198;-0,579380657;-0,026625522;-0,058165935;-0,934717321;-1,048560015;-0,762547592;-0,513551165;0,001646362;-1,199862704;0,344922261;1,119137355;0,639942835;0,116962741;-0,521343799;-0,845978883;0,028610376;1,717515707;1,242429689;-0,122112235;-0,668996252;0,542900595;-0,126298561;-0,926681199;1,031316631;0,023501559;-0,161684889;0,261342635;0,787993466;-0,44640104;0,930238641;0,866175668;-0,163690796;-0,227044007;-0,388022712;0,408276353;0,004032184;-0,124428461;-0,452193064;-1,405968977;-0,093844277;-0,23891805;0,787380404;1,002660994;-0,305848465;-0,644150794;-1,183032105;-0,132079164;-1,416514745;0,734156184;0,109826225;0,074826547;-0,451692641;0,775254174;0,484821222;0,074977035;-0,741623081;-2,36445174;0,1114541;0,746617512;-0,154702832;0,256612916;1,352899426;-0,208672837;-1,488816285;-0,299810292;-0,203967337;-0,103409823;-0,579845109;0,913238513;-0,734263436;0,190839063;0,590436995;-0,387980907;-0,869969063;-0,298548996;1,478461315;0,387181585;0,082087659;-0,911847995;-0,040090159;0,255525423;0,060751262;-0,069646804;0,155364706;-0,993845237;-0,771893753;0,606264872;0,18854835;-0,291435912;-0,754952098;-0,100971777;-1,267308429;-0,324037305;1,46411845;-0,77505499;-0,693419956;-0,758626219;0,744875309;1,024135713;-0,249792726;-0,071999877;0,86636532;1,143431136;-0,332074191;-0,417716297;-0,108607427;0,256528269;-0,439595899;1,316604292;-0,110618623;0,458275709;0,882492254;-0,730362932;0,388539099;0,048400976;1,446831504;0,075313897;1,103369662;0,85298034;-0,63141591;0,039994193;-0,256517617;-0,21581856;-1,282302227;-0,127401167;0,456793534;0,149264247;-0,084597907;-0,800004884;0,322532791;1,018494405;0,314077047;0,636084241;1,66906115;-0,158941082;-0,936063084;-1,42729703;-0,944673611;0,271064933;-0,809144549;-1,799025299;0,856971923;-0,844231623;-1,749184729;-1,578271935;0,677032583;-1,468062904;-0,716192969;0,016239837;0,600091766;0,031930882;-0,606561901;-0,424568436;0,186269396;-0,303683337;-0,701014081;1,441201306;0,609150027;0,435825529;-0,60409384;-0,08378863;0,051321265;0,239394045;0,100450828;0,379673363;-0,757595488;-0,625207143;0,454571407;0,919585688;1,361098533;1,035497564;-0,908147726;1,038060198;-0,681751438;-0,208539035;0,016956564;-0,518045699;-1,501731914;-0,294592485;-0,962944222;-0,260251156;-1,061174709;-0,992439258;-0,323159904;-1,227241887;-0,225627926;0,021807965;0,080402349;0,952745097;-0,533609564;0,921744274;0,362685559;0,212242539;-0,562909804;-0,181181251;-1,109802395;1,984479665;0,307495556;-1,211600467;-0,963959535;0,827381141;1,000708115;-1,423867532;0,412452055;0,557591194;-0,276325401;0,416435145;-1,289594897;-0,778299716;-0,253124126;-0,225401734;0,114653926;0,504701041;1,388221049;-0,643942087;-1,784306239;-0,720214923;0,858306155;-0,477303558;-0,082945893;0,519819757;0,099126683;-0,832890662;-1,30489346;0,832097738;1,419039077;0,933343472;-0,946253907;-0,308646752;-0,669249544;-2,08013913;1,27194018;0,263363174;-0,08088355;1,105565677;-0,417264507;-1,668267627;0,058925243;0,476343829;0,326572624;-0,526413235;-0,58939949;-0,092134944;0,096053608;1,88960463;0,336464863;-0,446858472;-0,869071102;1,158407985;-0,006030292;1,10181992;-0,553048544;-0,226715925;0,283661461;0,129296533;-0,685934578;0,11655395;0,648317661;-0,124821267;-2,317350514;0,196629518;-0,069877019;0,491916239;1,16651792;1,365273577;0,876803615;-0,75492159;-0,157397343;0,032485554;-0,688501176;-0,518316201;0,69498924;-0,789218667;1,938444698;-0,597007722;-0,581245769;0,331223201;0,616256977;-0,369362331;0,15663464;1,691899558;0,143745119;0,510597424;-0,050740026;0,313162899;0,030461386;-0,695844185;0,398289775;-1,456922318;-1,050781486;0,83669722;1,494069827;-0,174319335;0,70125899;0,00379929;0,72476165;0,678662621;-0,968971481;0,331228796;-1,012585803;-0,553676242;-0,347026149;-1,639040518;-0,407228648;0,225321605;-0,847251209;0,798467415;1,442259905;0,897397425;-1,108964007;-0,380080639;1,23763938;-1,786113769;0,563169623;-0,651196516;-0,961058874;-0,529397522;-0,028363387;0,988256806;0,441707814;0,778189843;-1,179641048;0,278386449;-0,027325106;-0,979848985;0,390797871;-0,50033091;0,040840961;-0,743736154;0,665236586;-1,064642955;-1,100381141;-0,150766062;-0,929328723;0,382067295;-0,704803535;-0,83011848;-1,246953657;0,066454135;-1,445260111;0,722983198;-0,04376339;0,886660179;1,303649171;-1,188098172;1,138176653;0,135574006;-0,808664514;-1,386497508;1,010518798;-0,378582877;0,32400273;-0,300470605;-0,080318944;0,386152711;-1,244252033;-0,765376209;0,765825535;0,726783249;1,20833723;0,540177097;-0,276378129;-1,214852243;-0,218987571;-0,682207675;-1,352164404;-1,052702055;1,15336377;-1,002201604;2,086397424;0,727029563;1,577559909;-0,563295134;0,123637428;0,76887387;0,699922368;1,021600525;0,407284625;1,595428078;0,851009499;-0,635125598;-0,412265066;0,489909197;-0,286302768;-0,023129949;-0,902223746;0,403533444;-0,39828925;-0,491576772;-1,005332855;-0,302344755;0,607725499;-0,1079138;-1,164041435;0,067684104;-1,650158425;0,462833093;0,290411013;-1,126767039;-1,100230984;-1,320930586;0,35096447;0,293670671;0,606880515;0,108852704;0,475416537;-1,049573123;0,084616794;0,83204594;-0,1868318;-1,648790755;1,356163913;-0,105319765;-0,822003144;-2,713834884;-0,833036273;-0,910632776;0,428577214;0,186502812;0,971238472;0,787049279;-0,870245165;-0,133100734;-0,748848443;0,360128058;-0,718367506;0,311124656;-1,679530839;-0,136785405;0,661884839;-0,010281403;0,00269323;1,065992575;-0,042036697;-0,151133993;0,598868426;-0,15421223;-0,955849229;0,146553686;-0,594251228;1,466406281;0,212829256;1,511225349;-0,787405363;0,585470373;0,778311436;0,381992941;0,02286332;-0,382484164;-0,281097892;-0,818546859;-1,092337123;-0,489146969;0,129450482;-1,00972808;-0,668382879;0,131744964;1,72036164;0,751019698;-0,377329639;0,506407298;0,69991517;-0,209089826;-1,044517696;0,871544101;-0,469334025;0,466249242;0,450831372;-1,101820515;-0,062916709;0,263180531;-0,643496254;-0,544935083;1,166477326;0,874911991;0,137329296;0,037063407;0,165891781;-1,012484779;-0,291907901;-0,100666192;-0,548543159;1,034834519;0,371320239;-0,290056542;-1,128744729;-0,049019455;-0,155421736;0,814105897;-0,67031391;-1,899211737;-0,509131502;0,368337136;0,783101021;-0,057408395;-1,3357499;0,473999819;0,246158237;1,503232872;-0,1768624;0,785592227;0,519525448;0,533053536;-0,302588035;-0,180853254;-0,518438925;0,294604266;-0,472893086;0,028622845;-0,506275217;-0,670952087;0,301176309;-1,428393778;-1,575526744;0,199796599;0,12186288;1,539092958;0,227787023;-0,632620704;-0,568638391;-0,511827445;-0,211991933;-1,145232106;-0,583015556;-0,078909186;-0,703843707;0,402346183;1,034010003;-0,166604149;-0,845511154;0,306847662;-0,163352572;1,297742029;0,928655279;0,129629693;-1,488581147;0,060865312;-1,66041096;0,342699325;-0,744389178;0,698814665;1,394829358;0,984747591;-0,224232156;0,316614513;0,015958471;-1,105997128;0,416171339;-0,378596962;0,347494233;-0,211386973;-0,947981953;-1,47249258;-0,213698395;-0,077287523;-0,162795641;-0,142620631;0,639762914;0,898242924;1,041585937;0,890546556;-0,891409096;-1,106869536;-1,011902304;1,61544555;0,714722725;-0,455840006;-1,163276619;-0,114130575;0,276169928;-0,277117829;-0,94622212;0,190265408;-0,383171808;-0,087783415;0,652003875;0,385875723;0,457905222;2,062332223;-0,070912994;0,451493874;-0,11545676;-0,627264774;-0,184375528;0,167830588;0,318133608;0,974141094;-1,488839564;-0,851173331;-0,139820026;0,546900084;-0,00312623;-0,535283582;0,193072151;0,31212284;1,592355645;1,507580473;0,041613986;1,001186673;-0,764372327;-0,703207531;0,490548189;-0,656109403;0,842200972;-1,113277725;0,105058379;0,426760156;-1,124569731;-0,001727817;0,355198726;0,609780194;0,392614725;0,983862863;0,551457061;0,140315905;0,195095622;-0,55280752;0,089666746;-0,049545697;-2,229720725;-0,913441819;-1,806091928;-0,566823069;-0,821410716;-0,64559405;-0,919915855;-0,840658135;-0,125256834;-0,541104546;-0,299122278;0,818579577;0,308279394;1,099896748;-0,662172948;1,030243765;-1,238944808;-0,189475168;-0,606302597;0,180480384;-0,01948983;-0,376779894;0,35091067;-0,288636335;-0,068007905;-0,130411562;-1,357769799;-0,662341623;0,388792489;-1,684192742;0,675434121;-0,802110163;1,084911383;1,470496481;-1,297217799;-0,244011619;0,181435154;1,212757662;0,877957936;1,681344441;-0,964908296;-0,371897675;0,454060888;0,178321898;-0,292411948;-1,026766984;-1,323321388;-0,207122809;0,286457141;-0,659583798;0,661024659;0,451371419;0,318923049;-1,153996198;-0,097628309;-0,90450801;0,21465976;-0,478574689;-0,750352142;-1,068310947;0,997895709;-0,753722935;0,672259616;-0,215599478;0,388255455;0,06323071;0,022816658;0,402155267;-1,122305158;1,241783217;0,451319874;0,821650956;-1,077725773;-0,674477326;1,104616444;0,653321747;-0,665454482;-0,636297221;-0,472706763;-1,080084731;0,444216521;-0,781084909;-1,467705948;-0,805800445;-0,205997371;1,158160389;-1,790191064;-0,37810821;-0,800301878;-1,148057949;1,129484822;-1,065915117;-0,096305368;0,372175518;0,618788004;-0,254177834;0,090174569;0,795817835;-0,117392401;-0,043939293;0,142177616;0,346139255;-0,880070283;0,707181249;0,815370637;-0,025111875;-0,088343241;0,167198974;2,256185108;-0,380950008;-1,191886572;0,755189254;-0,229871634;-0,461622974;1,223295687;0,564825052;0,359139478;-0,953126929;-1,047625732;0,147365529;-1,413846628;0,814596634;0,86767602;-0,545453427;0,518212253;0,136539637;0,479336535;0,177063201;-0,292592897;-1,096378774;1,17911194;-0,806224861;0,422687354;0,92699292;1,125833603;-0,535806542;-1,28179442;0,497103548;-0,717175528;1,142897045;0,703998228;-0,132334249;0,692933564;0,583392261;-0,206816112;0,273486969;-0,644459756;0,079446941;0,567080298;-0,895772814;0,780049599;-1,007348603;0,654854895;-0,666346466;0,204830716;-0,30313671;0,139819817;0,079272043;-1,11568056;0,182642399;0,79596888;0,755542079;0,162317115;0,025518958;-0,017122437;-0,498563474;0,591233324;0,638200134;0,172632724;0,659045536;0,778428825;-1,150296135;0,112791975;-1,832133875;-0,576895143;-0,04702878;-0,572010323;0,74549194;0,742952304;1,450348654;-0,075378861;0,531644551;0,131820106;-1,52742419;0,865870873;-0,870298742;0,10644715;0,539429357;0,204928244;0,569778368;0,371041299;0,127705832;-0,955067712;-0,457701326;0,054567854;-0,516251577;-1,483721514;-0,699024015;0,796984862;1,392089762;-0,406108343;-0,540521871;-0,317784506;0,670285601;-0,807136669;0,359021091;-1,194483637;1,230581123;-0,771706765;0,288373347;0,384698681;1,387562864;-1,462522003;0,123614203;1,584661411;-0,5625363;0,146249515;-2,031324947;-1,200870139;-0,319414665;-0,571519312;1,180216137;-0,58965249;0,38748076;-0,184139819;-0,186428883;-0,115389281;-0,457812745;-0,330225516;0,164580833;0,028816657;-0,081071206;-0,598359534;1,33376277;-0,279813942;0,326960302;-1,702489445;-1,609920591;-0,127802979;-0,596736883;-1,955668467;-0,06891842;0,965018496;1,199088113;0,047460159;1,147272515;0,556128216;-1,737460996;-1,412758446;-0,020637474;-0,7508039;-0,172050066;0,538508637;-0,468474797;0,267565496;0,547612204;-0,893336699;0,212368303;0,953387164;0,660891117;1,005238969;-1,646243948;-0,302065971;0,562612789;0,595245364;-0,485592153;0,959246007;-0,724768036;-0,149301735;-0,799337618;0,917748029;0,111596178;-0,549082651;0,230117757;-1,223048835;1,028557439;0,472358858;-0,198063807;-0,261343419;0,417555004;-1,101018026;1,369526832;0,213635275;-1,144297392;-1,028431679;0,948888918;-0,451407275;0,234465151;-0,586442622;-1,009525898;0,320215756;-1,196332491;0,83907627;0,376762253;0,142154916;-0,717978868;-0,435825206;0,808732592;-0,397365417;-0,409543611;-0,880135322;0,584687667;-0,256372576;-0,19533326;0,89380647;1,884734065;0,253829858;0,298267778;-0,308988543;0,309887861;1,639773822;-0,708498697;0,449142342;1,012746445;-1,001612881;-0,481900996;1,423040196;0,52602388;-2,393057963;-0,291258378;0,635041483;-1,101845311;-0,910370688;-0,697300981;-0,653066997;-0,582975678;-0,158837381;0,412487776;1,611309304;0,419847168;-0,562485823;-0,018127718;-0,407490104;-0,73433354;-0,203405373;-0,567311035;-0,303841824;0,174620729;0,390003915;0,497148448;0,52871683;0,642634676;1,377088849;1,530303332;0,64328184;0,05845419;-0,931390267;0,700083359;-0,815397493;1,177419961;0,060167032;0,561354393;-0,044265641;0,553990085;-1,366935842;0,280641885;1,200681011;-0,14332344;0,121233266;0,317900875;0,124273337;-1,349292941;-0,410914283;-0,866135612;-0,635147515;-0,023180508;-0,196381008;0,025894664;0,006760981;1,00792618;-0,433229278;-0,034185856;-0,484556478;-1,009104096;-0,374673576;0,445261842;0,389480457;-0,398105525;0,019573962;-0,922964587;-0,040715143;0,492313505;-0,017193091;-0,163867769;-0,243677939;0,043095259;0,666412507;-0,525662424;-0,750065471;0,785615098;0,724695148;-0,020364427;-0,584025502;-1,061476132;0,55252559;-1,405595406;-0,625647132;1,25225574;-0,521278932;-0,844849826;-0,522537603;-0,150359275;0,586097399;-0,008507465;0,937952033;-0,142012935;0,035897431;0,289654185;0,476587355;0,089610346;0,446107416;-0,064985867;-0,366865747;-1,544265558;-0,075844794;-0,070303282;-0,578039376;-0,711075202;0,221076512;-1,175066372;-0,102782007;-1,234067392;-0,046219893;-0,131621915;1,060542047;-1,119569784;-1,767361903;0,009781928;0,018396376;-1,145557104;0,090295089;0,080576593;0,37734354;-0,65387508;-0,056593321;0,321626792;1,2992685;-0,852408883;-1,734534912;-0,063169591;0,062444735;0,464666548;-1,625537281;-0,541226782;0,121220598;-0,517396572;0,470903571;0,265170783;1,117787108;-1,248256983;0,5975673;-0,357862848;0,256480441;-0,569268577;-0,063485588;-0,183168202;-0,859440893;0,974719601;-1,500132939;-0,047887351;0,341331294;1,063694411;0,342680959;1,183208203;-0,959583173;0,846888572;-0,60463897;1,159977525;1,059235464;0,038782438;-0,753280928;0,297387544;0,411544536;0,664875823;0,066569692;0,459519733;0,234306936;-0,36976378;-1,174762802;-0,70459627;-0,402782438;0,09832229;0,08470789;0,484727465;-1,471196202;-0,373815643;1,135968774;-0,205655935;-1,270805545;-0,459708561;0,374588921;-0,493171526;-0,164703247;0,068928119;0,728545696;0,05265995;1,47498945;2,024250179;-0,679073157;-0,085686288;0,541271677;-0,91724126;0,375780677;0,908320518;0,692320103;1,23401188;0,342738208;0,381355297;-1,31440903;0,173969562;-0,961446631;-1,392580372;0,256239766;-1,277189546;-0,86128291;0,326919667;-0,145339422;-0,013664301;-1,977123622;-0,162195209;0,40025835;0,535319471;-1,100689439;-1,328238476;0,209828906;-1,703170467;-0,584134409;0,889386402;-0,366131439;0,243494532;0,34442813;-0,18766215;-0,32931821;-1,198700525;0,508979694;0,679053749;0,141785145;-0,23375898;0,179789245;-0,213975797;0,53630329;-0,786929801;-0,090528797;0,109390362;-0,11729331;-0,401057696;0,162733391;-0,089622726;-1,061644156;0,258860297;-0,130135207;-1,153949153;0,49300259;-0,287753939;0,044115527;-0,478201069;-1,007460486;-0,693736571;-0,942235162;-0,207204375;0,890351333;-0,197166178;-0,387395173;0,237232419;1,169225529;0,825385724;-1,054553142;0,675550691;0,637057539;0,290786631;-0,660547478;-0,48142709;-0,328262168;-1,300771887;0,172959254;-0,262022468;1,311845478;-0,219887016;-0,609085094;0,122846617;0,870076038;-0,059527434;-0,466193308;0,507865762;1,210023462;0,908963468;-0,951529897;-0,428972445;-0,200946222;0,215412975;-0,133140904;0,496436588;-0,074168381;-0,844340858;0,152866783;0,840328037;0,73449448;0,108998079;0,711442482;-0,009651454;-1,248263698;-0,881199721;0,511579768;0,066639178;-0,090242951;1,14158924;-0,045848427;0,633164621;-0,129039503;-0,001459156;-0,211341861;-0,361440852;0,690544315;0,676509447;0,027217377;0,06912529;0,031494215;-0,70761807;-1,248330379;0,292067753;-0,133644596;0,443315175;-0,126080699;-0,79750371;-0,626364216;-0,709666153;-0,024151463;-0,584196025;0,090608332;-0,328141742;0,127186175;1,009253032;0,687243806;-0,581650721;-0,273293032;0,038395635;-1,427655145;-1,210357664;-0,393243943;-0,91699829;-1,246220338;0,216168666;-0,835365997;-0,334992693;-0,153603913;1,235580087;1,299582681;-0,014202386;-0,172600924;0,289102462;0,158673313;-0,531927804;-0,940340606;-0,805555317;0,230824087;-0,146968824;0,785197564;-0,361386242;-0,031734453;-1,20066044;0,798406507;-0,121207885;1,282085243;0,543849853;0,51055008;-0,220063885;-1,622268634;-0,034355488;0,006180438;-0,279280903;1,364764294;0,28783863;0,500418112;0,152260535;-1,202457075;0,819937019;0,713959286;-0,434415885;-0,836251195;0,496404438;-0,439555856;0,259506942;0,173336082;0,094712532;-0,526326723;-0,072466191;-1,477669298;0,40394847;-0,392391565;-0,069153158;1,091811989;-0,152901558;-1,593494698;-1,012500262;-0,588682249;1,111202105;0,918472514;1,155941239;0,725441967;-0,680936076;0,312760321;-0,6490842;-0,112905432;0,893533657;0,425446705;0,663340313;-1,876044882;0,856349515;0,917591754;-0,774298583;0,791621647;-0,083941461;-0,273525554;-0,400770568;-0,557053946;-0,039377534;-0,240825124;0,620294084;0,099234399;-1,801423997;-0,132455636;1,944808526;-0,148399806;-0,272809872;0,1623934;0,241301884;-0,62569195;-0,953121419;-0,137405305;-0,377310402;-0,467490258;0,767621636;-0,557056604;-0,473294931;-1,3316366;0,197159407;-0,572206854;-1,167385684;0,159143764;-0,125331058;0,143834522;0,255333767;1,291648435;-0,403596558;-0,624420689;0,110519304;0,085503949;0,032266049;0,046283365;-0,705371128;-1,292186306;-0,347657187;0,652524132;-1,096570873;-0,635125739;-0,353884385;-1,216400026;0,311377139;0,276018992;-0,693117633;-0,471838939;-0,128737616;-0,084304832;-0,378437722;-0,421655199;-0,033688224;-0,830873881;-0,517287178;-0,587759275;0,829770793;-0,157036315;0,91476474;0,077882097;-0,08859153;0,016774444;-0,052076672;-0,985035903;0,669569764;-0,761583341;0,155547898;0,460385097;-1,198001197;0,627044334;0,489325786;0,329402696;0,306897611;-0,868462837;-0,271200268;0,599458159;0,800475698;-0,062937225;-0,05748479;0,859032999;0,677021029;0,537796753;1,52016241;0,373399462;0,678915277;-0,75914936;-0,211266479;0,611916195;0,407127019;0,648919855;-0,328729267;-0,187553663;-0,228861255;0,375882258;-0,255152633;-0,062164754;0,27962004;-0,159248332;0,354146284;-0,098688203;-0,07471188;0,799795478;-0,781266631;0,035426468;-0,571997476;-0,672100673;-0,351050573;0,683717429;-0,068745477;-0,775914354;-0,846623233;-0,380054742;-1,177362047;-0,613245462;-1,016824104;-0,122171904;-1,304538271;-0,89653316;0,188808482;-0,798014718;-1,349890406;0,424122255;-0,404487858;-1,05747262;-0,946706077;1,276661112;-0,399920014;0,560569676;-0,16207333;-0,802566374;-0,039468695;-1,776649624;1,07564906;-0,173639356;0,79368221;0,363963824;1,535873368;0,103584398;-0,428588032;0,492065446;0,37282485;0,76464263;-0,079231734;0,08384697;0,007992311;-1,469122916;0,448205336;0,183220463;-0,844957856;0,518909163;1,034735003;-0,976598903;0,353712549;1,19293199;-0,199067125;0,02089762;0,477834734;0,793522134;0,568281787;0,181599235;1,208363699;-0,871966368;0,453611382;0,144186145;1,201694321;-1,800699942;0,996266614;-0,569226719;-1,122724038;0,110960277;0,214723182;0,451670136;-0,396560862;-0,668565798;-0,292282921;0,174063648;-0,871509733;1,679722964;0,37521669;-0,615866294;-0,262570964;-0,895235712;-0,24315875;-0,112960948;0,576273904;-0,843530803;0,629915287;-0,74309015;0,360558631;1,34821087;0,505241204;1,004250085;-0,231051881;-1,03576108;-0,046050713;-0,395562575;-0,171453014;2,306242912;-0,436280989;-0,520200192;-0,778509337;-0,416699514;0,436014827;0,659379766;-0,543632685;-1,313658715;0,272737768;-0,29912922;0,611991236;0,4606889;0,187911068;0,29689149;-0,058137836;-0,408996636;0,648176143;0,9126844;0,446760634;0,239173916;-0,877217978;-1,508418088;0,677209476;-0,618710286;0,514175489;0,774610439;-0,890271945;-1,090035981;-0,402342627;-1,212736559;0,395942076;-0,188074362;-0,923226243;-1,127412279;1,270449657;0,017800313;0,278900038;-0,750420047;-0,683579563;-0,114965173;0,133670531;-0,986654581;-0,199464524;1,042067723;-2,445506005;-0,486669605;0,641958632;-0,62940133;-0,001203278;0,417596157;-0,653490016;0,518964115;1,60900135;-1,37663336;0,558538716;1,126663871;-0,469457804;1,070700129;0,937627558;-0,152894906;-0,463635296;-0,373568553;-0,25740163;0,097676348;1,287676513;-2,115041377;-0,697196363;-0,804295989;-3,311138352;0,503287662;0,631455207;-1,280654857;0,355066191;-0,36625245;-0,112375471;0,9497611;1,24705803;0,317311765;-1,281139603;-0,37004961;-0,972757072;0,67552058;-2,186189332;-0,804936278;0,304888002;-0,340861616;-0,191249334;-0,017970643;-1,392680927;-0,714945602;0,633213357;2,748362574;1,655311141;0,970018891;-0,219713151;0,493380036;0,44068107;0,816391971;-0,175296462;-0,263815121;0,512339865;1,684747172;-0,298446746;-0,492816639;0,678971835;0,115755901;0,370910299;1,640923677;-0,29638849;-0,389275905;0,548393195;-0,16589901;0,5129317;-0,199988518;0,152947702;0,414106734;1,198219084;0,302134793;-1,572720197;0,106666787;-1,0141188;-1,309445249;-0,131428673;0,979615578;1,204397792;0,403235385;-0,535432782;-0,771567193;0,108037967;1,097967398;-1,343662388;-0,15597827;-0,116987708;0,523874206;-0,335236065;-0,811200054;0,411472482;-0,738445417;-0,392651805;-0,200199373;-1,276592835;-0,23610261;-1,437566872;-0,102374858;0,039464698;0,121654431;-0,112856512;0,333774183;-0,174154989;0,816989976;-0,172756376;-0,476617537;0,371874714;-0,059822087;-0,978215297;-0,449949352;0,257069286;0,082824764;-0,677447298;-1,319181997;-0,238117102;1,032365491;-0,071442382;-0,322824269;-0,704550629;-0,65673729;-0,22141282;-0,349629331;-0,277985826;0,088414683;-0,729168852;0,762412302;-0,457053932;0,225646681;0,232052155;0,413010859;0,098702696;0,121660603;-0,591506015;-0,18199886;-0,926941369;1,658615805;0,382121413;0,825861072;-0,387563828;0,56041436;-0,223706817;0,886036279;-0,579321953;1,518817698;-0,129290153;0,202425068;-0,175696568;-0,800351981;-0,05625396;0,55165223;-0,35692136;-0,333238289;-0,102166143;-0,65985091;0,551130304;-0,174841066;-0,011393323;-0,069759383;-0,174276915;-1,423748214;-0,81037578;0,119323857;-0,447221545;1,580643576;1,518398521;-0,153071806;0,589286018;0,194376052;-0,262419334;0,373618561;-0,319196729;-1,011261767;-0,129306585;0,082991103;-0,092060521;0,1118141;-0,27714438;0,516170965;0,659705568;-0,462702342;0,079234767;0,053526084;-0,309784928;0,424886823;0,790098766;-0,135064653;-0,312148199;0,910760102;-0,097442547;0,463480266;-0,015123884;-0,829294644;-0,917096928;-0,139803844;-0,360543531;0,282210821;0,196324054;-0,050096514;-0,521762681;-0,170251146;0,127129764;0,521594534;0,76340086;0,067926496;-0,284207366;0,078698071;-1,046962037;-0,776538925;-1,078550852;-0,348733458;0,342137004;-0,299297066;0,469093012;-0,132621938;-0,174117963;0,832772333;-0,14092455;0,410283415;0,570588801;-0,045109174;0,743851304;0,305623554;0,001714867;-1,146421996;-0,684057408;0,052851642;-0,28359765;-0,785979183;-0,349885565;-0,293241958;-1,245021262;0,942417273;0,771820363;1,248391837;-0,487487047;-0,397731135;-0,521536208;1,25511389;-0,037274034;0,380226755;-0,486766032;-0,652691322;-0,400901825;0,668658232;0,551716761;-0,496026918;0,35458854;0,30273077;-0,521189527;-0,594673843;-0,302289419;-0,223517668;-0,574723409;-0,4719297;-0,7161052;0,018278734;0,427353488;-0,102643365;-0,396423417;-0,076452491;-0,166030683;0,12570653;-0,495776559;-0,297147313;-0,102260423;0,453551132;-0,560955427;-0,082091059;0,188766045;-0,675168986;0,040369482;-0,714937049;0,053291315;-0,491896228;0,461714275;-0,6785004;-0,648413175;0,266788428;0,03349279;0,167813928;-0,581785652;-0,18911103;0,017400096;-0,071640347;-0,164326721;-0,030359612;-0,305078504;0,002049866;0,371740505;0,360102002;0,559208927;-0,482747707;-0,304947819;-0,683917493;-0,488335879;-0,722994312;0,128234004;0,438016656;-0,22933765;0,502229593;0,111126364;-0,115964121;-0,169787375;0,040918906;0,123216163;-0,253232976;-0,113066153;-0,310083785;-0,167216055;0,338304799;-0,142079515;0,030487821;-0,82306166;0,004740666;-0,613130452;-0,63655894;0,025069786;0,21455612;-0,035448912;0,085157005;-0,347358039;0,079380334;-0,08720067;-0,035028519;-0,729287139;0,621047942;-0,238542088;-0,113067902;0,810651428;-0,298110993;0,062019794;-0,034211277;-0,384893113;-0,606323087;0,533734262;-0,469006328;-0,278677269;-0,389831207;-0,455926071;0,133513715;0,090072835;0,389183813;-0,18627013;-0,619967942;-0,359343823;-0,162016138;-0,194466029;-0,525875849;-0,17506896;0,815045491;-1,431135535;0,915317082;0,211199167;-0,476335815;0,494149136;0,245133368;-0,394379375;-0,58792245;-0,045033463;-0,96247629;-0,066452962;0,738282768;-0,350480391;-0,420847098;0,217293321;0,795513593;0,575888632;0,144877877;-0,724020987;0,147655083;0,522999599;-0,529039332;-0,63730061;1,419729145;-1,619390374;-0,055802171;-1,130138195;-0,069603414;-0,285976827;0,397303083;0,617334806;1,901770435;1,12286875;-1,304047529;-0,285799477;-0,858592661;-0,018783855;-0,084537569;1,261412536;0,562737009;-0,397489235;0,138364444;0,692850155;-0,315537286;0,755968711;-1,541511103;0,703968048;-0,743800433;-0,861249327;1,006141406;-0,07396277;-1,022824535;0,442672849;-1,234525537;-0,855759057;-0,567912947;0,982411655;-0,738631526;2,030430399;-0,854245046;-0,142573251;-1,021338695;-0,022876349;0,933559901;0,542599127;0,440368714;-0,019534639;-0,925147801;-0,094863482;0,257044137;-0,703400111;-0,756287279;0,264218284;-1,051762439;0,445219668;0,250985784;-1,350203061;-0,018893226;0,140846396;0,455950025;-0,324011826;0,442266827;0,166067694;0,430959384;-0,762782203;0,130003706;0,041717291;-0,998048059;0,243491574;-1,628496187;-1,222500657;-0,340936551;0,274087815;1,568473886;0,229824004;0,063607454;0,60809181;0,552681809;0,118127609;0,326775974;0,32345184;-0,323926014;0,629324752;-0,14937756;0,337624217;0,620809782;-0,222056357;-0,191596168;-0,483948003;1,713173223;-0,446807952;-0,125836112;-0,392415068;0,659464603;1,507014619;0,802633992;-0,084498489;-0,686279527;0,716246153;0,305367892;-0,443883354;0,426455816;0,112515955;0,121689896;-0,227753351;0,656342278;-0,352763067;-0,771433571;-0,363244739;0,577124347;0,263008193;-0,639915794;0,655801537;0,215472562;1,383313894;0,569115261;-0,243030987;-0,737003625;1,647779304;0,18471484;-0,319115387;-1,18911175;-0,452006802;-0,931089177;-0,64321529;0,737165637;0,409685406;0,144521716;-0,426283253;0,848757385;0,39063578;0,031907905;-0,834639319;-1,278480474;-0,901136462;0,118604074;-1,202878335;-0,575198947;0,718986746;-0,649587858;0,289482681;0,055163439;0,427696703;0,689265698;0,90306459;-1,507123415;-0,298745365;-0,598604852;-0,938229677;-0,037973935;0,816102607;-1,205980092;0,703353173;-1,078101815;-1,999867538;-0,723354065;-1,042446981;0,407323238;0,450078487;-0,696002255;0,198521744;0,723359199;-1,475390255;-1,400060448;0,039379136;0,780062664;-0,483280288;0,016936012;0,312168303;-1,464038132;-1,345235713;-0,023606524;-0,057676588;0,583539657;-0,206519859;0,702571766;-0,170304384;-0,142691025;-0,288004055;-0,0753151;0,506721818;-0,723636637;-0,775413179;-0,817870121;-0,505703422;0,096278487;0,991819069;0,096635649;-1,202300343;1,044749636;0,320343868;0,573471177;-0,204618245;0,304933664;1,42420835;-1,433711834;-0,529668064;-0,116088591;0,95990506;0,082206455;-0,253532099;0,446131004;0,124055894;-0,390827438;-0,021084878;-0,481140804;-0,511072764;-0,858117919;0,25097458;-0,580698101;-0,386117358;0,672354156;-0,550567185;-0,636650589;-0,25452409;0,443387052;-0,105196421;1,650403552;1,92739448;0,031800785;-0,515200469;0,564125473;-1,094195386;1,062253008;-0,07424304;-1,145823236;1,176736432;0,479697103;1,809132493;-0,807049582;1,086314388;0,620398392;-0,007662364;-1,040417284;1,572638282;-1,783094603;-1,130216635;-0,180506053;-0,892953346;0,043676041;-0,101674436;-0,146418514;-0,695170087;-0,241995359;0,469039028;0,210382381;0,395440626;0,332454748;1,054045141;-1,45817747;-0,215562683;0,288028217;-0,726703595;-1,550168438;-0,155152982;-0,104557309;0,453651881;-0,888439108;0,774403981;-0,77726002;0,586221812;-0,329566217;0,419258878;-0,699711309;-0,601940346;-1,189244178;-0,300953642;0,213126237;0,295286528;-0,311985723;0,318545679;-0,097669222;-0,893094969;0,661526366;-0,713382902;-0,624188673;-1,043636357;0,325300944;1,183397773;1,794970165;-0,735313123;1,021723355;-0,60983681;0,044852522;0,190367463;0,171494197;0,614073066;0,611528579;-0,388550534;0,807865862;-0,70486761;0,601563356;0,482075227;-0,317571907;0,004688679;0,174748056;0,709339035;-0,264474476;0,254912535;0,77970245;0,317947151;0,06883833;-0,999452014;-0,437819884;0,302162473;-0,260322689;0,120822257;0,689261642;0,761316179;0,098822276;0,390441716;-0,423848054;0,199266634;-1,122465265;0,257403013;0,56056886;0,397399231;-1,219118241;-0,811172325;-1,245925964;-0,661833439;-1,233916645;-0,190138991;0,27211295;0,457535008;1,285120861;-0,525457616;-0,480264137;-0,685515153;0,850466053;-0,19996026;0,911034053;-0,970425198;-1,507479788;-0,106980139;-0,064530306;-1,578462461;-0,410588618;-0,346548978;-0,846117576;0,226386171;0,08530207;-0,994780618;-0,624597215;-0,817266552;0,122101118;-0,882310303;-1,715764075;0,510981316;0,865237814;0,356901345;0,914241655;-0,385896355;0,445846601;0,102081018;0,276019664;-1,155115437;-0,010374282;0,97053888;-0,625204961;0,144201319;-0,632038867;-0,154767344;0,273989817;0,484659074;0,822546116;0,189513045;0,262626737;1,098917404;0,516474061;-0,135060994;0,882716915;0,229606488;-0,291270441;-0,059371015;-1,025857456;0,567059818;0,090333365;-0,053138433;0,407874423;-0,641427392;-0,04974077;-0,489068437;-0,621034483;-0,406580403;0,884456314;-0,076269216;0,060699314;-0,135015943;0,189381842;-1,095021183;-1,354326622;0,682983829;-1,233316203;0,429496531;-1,586754796;1,110565262;-0,317549104;-0,516813106;0,138956935;-0,300421889;-0,700466571;-0,849026432;-0,481738966;0,968558132;0,253386544;0,176234669;0,601030589;-0,676700874;-0,598631396;-0,034711478;1,25493261;0,37507545;-0,571508462;-0,074380773;-0,602893744;-0,577090959;0,831954392;0,180603269;-0,879836097;0,00213584;-0,141545501;1,065827894;0,489141151;0,52904335;-0,664194335;0,894950036;-0,41878209;-0,598373636;-0,303186468;-0,09457452;-0,275352434;1,977937447;-0,389184474;-0,079168893;-0,188447362;0,926853914;1,314911771;-0,661000143;-0,833146455;1,22025404;0,464289126;-0,573000063;0,296714857;-0,211204234;0,28588022;0,611509338;0,215304095;-0,623748169;0,802740997;-0,198721617;-0,138325115;0,69525385;-1,478593148;-0,731005943;-1,88263514;1,270973547;-1,445357156;-0,549306026;0,210641618;0,066818866;0,245854071;-1,912283179;0,007885453;-0,576220937;1,099616774;1,166882546;-0,465457138;0,014102503;0,477539539;0,358481464;-0,42502879;-0,516008257;-1,142570334;0,712063769;1,513188;-0,077078271;-0,148385402;-0,511960081;-0,396258189;0,0064004;-0,539780451;-0,445375728;0,166515782;0,585457095;-0,039617751;-0,495485828;0,376665038;-1,604251843;0,640138281;0,710809916;-0,096087085;0,475540721;0,32379452;-0,341734781;-0,058395658;-0,567487258;-0,804261056;-1,344166712;0,578245843;-0,727233894;1,059995777;-0,7124094;-0,911408627;1,179353197;0,026653733;-0,704151422;-0,110778657;0,334745552;-1,125582863;-1,463826332;-0,183813365;-0,130575148;0,153325512;-0,063406731;0,454732403;0,705128014;-0,744829255;1,35315477;-0,532157612;0,708170522;0,369608914;-0,135669546;0,637261607;0,255729111;-0,556653711;0,549708012;-0,27237023;1,129249624;-0,451661141;-0,24601879;0,268784956;-0,713843544;0,14063854;-1,079172059;-0,107893406;-0,777295311;0,236483279;-0,137357967;-0,216985055;0,513291092;0,333869056;0,088314635;-0,693144368;-0,156885359;0,659866346;-0,476196195;-0,25432573;0,081135507;-1,341625106;0,997008581;-0,005196971;-0,228793897;-0,690727987;0,663707863;-0,433716065;-0,10154257;-0,525352848;0,821568817;0,108435837;-0,602438169;0,847164425;-0,482003743;0,0310478;-0,421327865;0,427429506;0,298516757;-0,093562528;-0,080050088;-0,491929416;-0,578536307;0,710300655;-1,049761733;-0,960713875;0,794211772;0,707836937;0,474180648;-0,227607909;-0,135779884;0,2257048;-0,650070274;-0,777601304;-0,577398961;-0,850432873;0,08822581;-0,844673031;-0,304966193;0,428324807;-1,137045676;0,29428229;0,963653088;0,357616098;-0,105506693;-0,776461051;0,396222224;0,274893579;0,685630129;-0,027054783;-0,368623865;-0,724140126;0,373861146;-0,865858747;-0,256417573;-0,297099426;-1,042958021;1,579836111;0,740235534;0,23152884;-0,993482371;0,716403009;0,176683626;0,680439017;-0,86175292;-0,346825689;0,674075774;0,530072368;-0,063059625;-0,062023712;1,184729303;-0,484288129;0,637773517;-0,29879605;-0,232378723;0,261867689;0,192759593;0,112090499;0,602687456;-0,297529679;-0,964588994;-0,527656027;1,295642552;-0,720909721;0,158937503;0,864827449;-0,118798358;1,256278405;-1,556042387;-1,111784679;-0,240128729;-0,141880149;-1,115739926;1,019898454;0,637738145;-0,925000245;-0,383947661;-0,752484207;0,446238261;1,654995213;-0,129599608;0,346591377;0,354787107;-1,830039384;-0,665215491;-0,695249899;-0,253232681;0,680815073;0,009034228;-0,785699131;-0,810158244;0,235003329;-1,587406266;-0,1402355;0,995513105;0,381799717;-0,014920715;0,226748502;-0,243506231;-0,37979655;0,087361835;-0,011295489;-0,182772749;-0,819919665;-0,056988169;-0,086729175;0,050761304;1,698430366;0,691752159;-0,440891337;0,543164629;-0,143422496;-0,131919886;0,253830487;0,736598002;0,241398036;0,750589282;0,245042283;-0,851387502;0,697305028;-0,997499296;-0,860996566;-0,600123601;1,131482436;-0,524181323;-1,248372989;0,23787507;-1,988638719;0,620546211;0,963337678;-0,750434118;0,206895499;-0,957846554;0,692366375;-0,254109059;1,976388695;0,352942614;1,059455492;-1,007164121;-1,042635623;0,360217365;0,620746062;-0,658558652;-0,287176575;0,056627206;1,006404557;-0,186124068;0,277449667;-0,289450413;0,381594575;-0,525952512;0,334905649;0,818663573;0,657871818;0,081322447;-0,561844602;0,047240422;-0,360478388;-0,831004821;-0,211809361;-0,152580074;0,342338517;-0,797169091;-0,594013167;0,265226732;0,262833449;-0,329227132;0,832208771;0,578852578;-0,557129116;-0,12979639;-0,632250445;-1,527774699;-0,705294971;-1,032227925;-0,686229458;-0,964048578;0,927396039;-0,156744266;-0,891879365;-0,549661016;0,210252335;-0,772864993;0,328628579;0,530485081;-0,265206103;0,198806173;-0,093975411;-0,500804629;0,756513481;0,250464272;-0,809687002;0,155722732;0,20018039;-0,640125397;-0,519450217;-0,231659469;-0,203594985;0,535674517;-0,341842859;0,50889527;-0,621222354;0,709042889;-0,457621946;0,704879537;0,60450887;-0,801249285;-0,433926642;0,044903047;1,193043763;0,006032411;0,609765159;0,501069732;0,182142002;-0,346799307;-0,147039239;0,280371119;-0,626221576;-0,214520167;-0,887588782;0,039933521;-0,115986778;-0,114316099;-0,837184927;0,258870598;0,327551187;-0,002136767;0,502333496;0,208203565;-0,083217543;-0,899799288;0,016430091;0,42369764;-0,535468289;-0,762670339;-0,66946563;0,06404203;-0,983021921;-0,570087349;0,223545993;-0,335622973;-0,34139655;0,702126624;-0,504593186;0,321185087;-0,561345025;-0,414392514;0,690484021;-0,882968633;-0,165979465;0,950570333;0,879505948;-0,343703704;0,35323259;1,434143454;1,185040875;-0,820176002;0,00697164;-1,069060329;0,283819555;1,136713147;-1,281762376;-0,357033053;-0,663781697;-1,035718363;-0,527895793;0,793505262;-0,734339174;0,385760753;0,336242662;0,493252692;0,517912097;0,373011057;-0,87795126;0,074291368;1,240709838;-0,682021922;0,198522163;-0,631708988;0,054101025;0,462432479;-0,218395436;-0,143042224;-0,725328322;-0,342032392;1,842956991;-0,181743776;0,250593916;0,582693442;-0,324602777;1,045462157;-0,8343889;-0,805247406;0,527101221;-0,558504794;0,341142686;1,219929161;0,22470264;-0,211275354;-1,040572046;-1,591055877;1,030175073;-0,602732259;-0,423917742;0,991726695;-0,557156214;-1,117743279;-0,549306715;0,226897032;0,693219767;0,248655749;-0,024656141;-1,070487908;-1,330729976;0,235285047;-0,063261318;0,347803347;0,722433067;0,957886337;0,824273837;-0,048494921;0,002442214;1,23157786;1,429127423;0,198693483;0,061362448;0,02832486;-0,125108036;-1,202622859;0,141031325;0,609648617;0,15301159;-1,296035514;1,223738535;-0,698260712;-0,07905702;0,40483934;0,220179873;-0,007283523;-0,440059291;0,010855475;0,033064232;-1,13835445;0,067257753;0,13018188;-1,22245806;0,95683532;1,591160107;-0,969643873;-0,276107217;0,072654344;-0,908188755;-0,688573327;-0,400622246;0,234122038;-1,002818023;-0,400731318;-0,482197817;-1,306587889;0,399939521;-0,060721372;-0,313114714;0,841673116;-0,184640404;0,734480788;0,097555384;-0,529192456;0,446320147;0,32789378;-0,203469874;0,700054643;-0,012867266;1,130224842;-0,756124687;0,53416212;-0,48030051;-1,017915646;-0,51036811;-1,257404307;0,960034054;-0,976304675;-0,673492752;-0,423523861;-0,017693219;-0,436308825;0,149927251;0,795982577;-0,469639871;1,193882274;0,244615478;0,883983826;-0,962221989;-0,293396774;0,473094481;0,115283821;0,79829137;-0,366624583;-2,338915519;-0,919016086;-0,021258425;-0,069502108;0,158451444;0,587004387;-0,598957634;-1,334836859;0,114472824;-0,91638981;0,370503012;0,489736948;0,391011668;-0,084622848;0,36605019;-0,739487962;0,367263133;0,013762761;-0,388560671;0,950933012;1,179373597;0,944190993;0,540706503;-0,418118416;0,038448309;-0,141691215;0,662785797;-0,642838413;-0,811015628;0,462084154;0,156254142;-0,243406747;-0,689902842;0,035128843;1,307094509;0,881934637;0,085808404;-0,763943589;-0,41165371;-0,228268493;-0,95001701;-0,858264048;0,782033385;-1,04086796;-0,596209749;-0,450536431;-0,761212299;0,680276579;0,147071429;-0,324612313;-0,968957968;0,790832402;0,870447175;-0,266052431;-1,223136455;-0,081795874;-0,618205492;-1,50317747;-0,190077087;1,166882069;-0,855589909;0,209154278;0,108897651;0,069637781;-0,918631199;0,073979961;1,157406012;0,333194733;1,190519915;-0,206506214;1,015187268;0,187450313;-0,686662132;-0,134624292;-1,619278311;1,347966694;1,536831591;-0,004582265;-0,107920136;-0,312508494;-0,638929675;-1,158455285;-0,422601008;1,255784101;-0,148193671;0,360837745;-0,205750175;-1,427658851;-0,630234327;-1,00419446;0,078205754;0,601251692;-0,973982211;0,653277258;0,761753509;-0,326959099;-0,628878015;-0,160300537;0,232190096;-0,345620132;-0,177875822;1,120694829;0,24244934;-0,05012486;-0,794259752;-0,915414782;1,022346493;0,148718812;0,644223525;-1,426851781;0,759387344;-0,327044209;0,29457891;0,197773306;0,505898642;-0,725704012;-0,40522112;0,562802732;-0,280021611;-0,00339343;1,011914099;0,610797538;-0,415106782;-0,394637212;0,276573729;1,297842975;0,293771518;-0,385375363;-0,153483705;-1,197079895;-0,425129249;0,378124639;-0,230943884;0,338304957;-0,882031582;-0,346973279;-0,492869817;0,09318403;0,515353422;0,023649794;-0,03634181;-0,686669038;0,012215599;1,038253027;0,480474921;-0,414867054;-0,828696054;0,848752098;1,070967061;-0,752729464;-0,184773567;-0,495182719;-0,49825094;-0,192555494;-0,989736826;0,749205005;-0,78726905;-0,052523906;-0,369614073;1,022933036;-0,732952052;-1,446172707;-0,669595145;0,445817555;0,616613143;0,300791932;1,092096573;0,177876139;1,434936436;1,070895316;-0,330980512;-0,490417443;0,179973065;-0,094128951;-2,26409304;0,651628844;-0,714608048;-0,341592341;-0,258463637;-0,123903268;1,167386694;1,580286016;-1,038161231;-0,928487593;1,2782361;-0,442382654;-0,602227318;-0,291492475;0,830710583;0,455488688;-1,003587825;-1,520558233;-0,823336907;-1,083577802;0,79043503;0,423491137;0,546096605;0,2262426;-1,025889081;0,452151831;-1,086297081;0,443642287;-0,068523986;-0,114368962;-1,175184321;0,726663016;-0,683893886;-0,790347619;-1,204030194;-0,608731351;-0,489105757;0,087026986;-1,580372064;-0,597657648;-0,477972457;-0,240510244;-1,943458209;0,234482598;0,711301474;-0,575650088;-0,573840012;1,689598727;0,630414481;-0,545192375;1,262077498;0,052724558;-0,904880575;-0,925053212;-1,081982587;0,962982956;0,616353345;0,188638329;-0,039388971;-0,837780757;0,37115273;0,812618711;1,033190532;-1,063691242;0,324650394;0,467914485;-0,210455919;0,997822739;1,322633767;-1,170667622;0,140779365;-0,633465244;-0,599309566;0,236173215;-0,671315162;-0,320610666;-0,362058404;-0,390454237;0,371750611;-0,125958106;-0,611483448;1,023098458;-0,195457558;0,612107053;0,925307475;-0,56713743;0,73465266;0,4984588;0,789972952;0,110319572;-0,666204857;0,389352225;1,15762441;-0,40553253;-0,65306216;-0,620519419;0,63584801;0,281100862;0,595770041;-0,683625113;0,103419649;-1,107280735;0,563161278;0,67553952;-1,149545448;-0,18668685;-0,035809144;-0,04470518;-0,471098492;-0,068274228;-0,717191258;-0,884444263;0,10757142;0,126388341;0,451393154;1,354012392;0,561066693;-1,30669139;0,301078544;0,587233633;-0,95303408;-0,814083188;1,23292307;-0,195217989;1,527530459;-0,37203722;1,401188873;-0,215066416;-0,758899325;0,727253755;0,767827264;-0,984438763;-0,391061737;0,2751273;0,249943563;-1,039723546;-0,213006657;0,946590329;-1,895772441;-0,560654741;0,335669368;-0,466162279;-0,009391149;0,656370049;-0,276334459;0,259842012;0,879649794;-1,009196883;-0,528548369;-0,5871932;-1,139443747;-1,181356082;-0,142919671;-0,161152829;0,920824985;-0,503656407;0,64734613;0,635590301;0,687180088;-0,087075499;0,212394226;1,386232553;0,226512998;-0,131192979;-0,745012052;-0,118461734;-0,084778045;-0,752101026;-0,093367207;-0,744902694;-1,129485022;-0,013490378;-0,085640216;0,716538256;0,604448419;0,575601122;-1,009958683;-2,881161363;0,362345907;1,732010231;0,468408473;0,344315805;0,041610569;0,153688768;-1,340899264;-0,562023111;0,065365116;-0,544003095;0,427724894;-1,152093495;1,145191298;-0,56836697;0,160754312;-0,014868888;-0,615739934;0,54058622;0,187386791;0,312659675;0,632540668;-0,240620069;1,496854624;-1,263523771;-1,060667359;-0,760375658;-0,55429947;-1,111941083;0,438562559;1,176596288;0,05764645;-0,370525203;1,700983301;-0,775063121;-1,309190043;-0,606540834;-0,321871023;0,18702463;-1,590604254;0,538149043;-0,183253774;-0,223808828;-0,148388604;-1,814281841;0,166885757;0,070151893;-0,549545324;0,725870916;-0,279561361;-0,082451326;0,963201558;-0,608619161;0,392088185;0,755688769;-1,481724365;-0,965391848;-0,128277088;0,35700732;0,715969703;-0,283066551;0,69818195;-0,720575106;-0,897405336;0,542206212;-2,315644924;0,331753495;1,104894694;-0,404080954;-0,161449937;-0,861514417;-0,086130757;0,868939867;1,335186253;0,288886547;-0,58680447;-0,532055438;0,886876822;-1,413276888;0,740347128;0,13812089;-0,348479069;0,823579941;1,014888558;0,218292049;0,298405668;-0,322063536;0,207150091;-0,487244615;-0,221021704;0,408021876;1,303755008;0,7884401;0,736791911;0,434606257;-0,47005479;-0,084126232;0,03959542;-0,622869762;-0,778557942;0,640846135;-0,75801803;-0,537551322;-0,369074753;-0,326731955;-1,548661675;-0,143385856;-0,315759172;-0,795975037;0,355530599;-0,242565557;1,057244926;-0,188165038;0,095601077;0,086665646;0,072665898;-0,362121163;0,705209142;-0,039578031;0,567647113;0,392527433;-0,548728366;-0,316899324;0,506990649;0,44814762;0,89737639;0,554615571;0,468901436;-0,417420415;-0,746351262;-1,838595716;0,204811373;0,682873044;-0,090637871;-1,008932702;-0,156921418;1,368462996;0,795448105;0,387075088;-0,962915992;-0,416642072;-0,067074019;0,334616835;-0,244803645;-0,403483353;0,893804836;0,478871192;-0,318712133;-0,610907201;2,162170769;1,287057334;0,699044223;-0,041034563;0,191604574;1,24027286;0,186522023;-0,076027881;0,437998969;0,820726448;-0,938883218;0,309792211;-1,61840894;-0,005027342;-0,816743743;-0,267923256;0,04281373;-0,11886727;-0,507060684;-0,481207423;0,322696479;0,034703233;-1,08336365;0,265783739;0,977875538;-0,116268347;-0,769567917;1,525949177;-0,499230151;-0,111750412;0,431464072;-0,41052733;-0,162734587;1,129321483;0,546171128;-0,575086292;0,619045605;-0,500089327;0,272365811;0,275250328;0,36500648;-0,794738636;-1,335779396;-1,636252498;-1,014889932;-0,89786316;0,294825579;1,334630055;-0,075462459;0,605961526;-0,94493678;-0,27958088;-0,493679651;-0,765979111;0,122965662;-1,370523819;-1,226731553;-0,523763684;-0,021183467;-1,657054317;-0,22079946;1,198622287;1,191190752;-1,139512265;-1,133005675;-0,695691315;0,138275378;0,5571944;0,078713943;-0,125050962;-0,268349402;-0,385320582;0,089267963;-0,297056349;0,242208665;-0,186126357;-0,291594068;-0,449429442;0,30562166;0,064535173;0,217738854;-0,06453425;0,327390125;-0,569624393;0,298752798;0,150652485;0,549618089;0,089342181;0,029912396;-0,122374852;0,492105566;-0,624676006;0,009142633;-0,70687317;0,046558251;-0,73713785;0,343642027;-0,426637985;-0,218182852;-0,357976704;-0,650316409;-0,319174311;-0,103013505;-0,201911346;-0,750104958;-0,423052653;-0,252838525;-0,011190612;-0,565133082;0,543104594;-0,043120207;0,292703695;0,390169726;-0,224065583;-0,384198017;-0,495520013;0,072206056;0,361483795;-0,178214129;0,157358143;-0,235076173;0,172752911;-0,066634532;-0,742188738;0,152496193;-0,525407779;0,312044267;-0,339596769;-0,795771284;-0,115858965;0,663026236;-0,376830434;-0,087097847;0,428024807;-0,214601977;0,687679577;0,5154654;0,791230446;0,637851966;-0,453528018;-0,456888319;-0,015095903;-0,62051692;0,464379791;-0,857681581;0,754054078;0,05484929;0,529226531;-0,87059658;0,31854706;-0,007262121;-0,674133635;0,261220622;0,098459974;-0,145593832;-0,417733256;-0,475916071;0,272353212;-0,531775801;-0,253811352;0,042341948;0,25053153;-0,17567119;0,510514012;-0,394165369;-0,121155929;-0,6036883;0,017288671;-1,570261259;-1,033627608;0,708127923;0,914119874;0,584504781;-0,555839584;-0,661785119;-0,588477531;-1,712022015;0,584067372;-1,015015196;-1,368975825;-0,830471383;0,014196963;0,492812705;-0,61586073;-0,526341638;-0,730752849;0,042182094;-0,416956439;-0,595361053;-0,760348016;-0,34810096;0,481482174;1,264003595;0,411534103;-0,587044797;0,678816511;0,27551067;0,704972014;0,286818744;-1,035919346;0,15779538;-0,851453962;-0,45728079;0,215148032;-0,619501226;-0,157819285;0,133114361;-0,675935203;-0,922982653;-0,319667989;0,796262404;0,272079532;0,564006028;0,463097506;-0,294674435;-0,05072717;-0,579887924;0,833226347;0,685021545;0,097129185;0,169286639;1,100116493;0,160927725;-0,0450641;1,323377278;0,869025048;-0,758040809;-0,368303081;0,111829939;0,43808323;-0,411904098;0,336819558;-0,871990824;-0,686200472;-0,33323834;-0,924891885;1,135339851;-1,153760751;-0,067342936;-0,756291198;-0,191194262;-0,165363767;-0,460698168;-0,311363443;0,0013952;0,242659735;-0,205163308;-0,117675394;0,395364346;-0,216124036;0,439095613;0,149882839;1,734492259;0,233314516;0,316891705;1,306934875;-0,234737703;0,105582927;0,372758564;-0,596550733;-0,738125157;-0,421681082;0,240488183;-0,888929465;0,109545225;0,453428405;-0,401591637;0,234815341;-1,368093628;0,793561551;-0,34456682;-0,827199618;-0,338737412;0,371676413;1,327672329;0,815798628;-1,730009202;-0,782685522;-0,819255058;-0,917988231;0,291493155;0,900725678;-0,66597493;-0,351202863;-0,304305549;1,575260462;-1,007930708;0,680212483;-0,143788611;-0,103798425;-0,959721411;0,864700681;-0,855579478;0,316660753;0,236379595;0,207429305;0,49454167;0,632318685;-0,284176651;0,646602577;0,42768527;0,181981148;-1,232705293;0,665879081;0,689341123;0,933621594;-0,053055257;0,959875477;0,92211522;-0,142485326;0,432144052;0,940578924;0,894286158;-0,111841869;-0,075551424;0,044856111;-0,261203953;0,589176695;-0,761920986;-1,454934802;0,027087815;-1,038350631;0,065947053;0,77929362;-0,466786393;-0,729481079;0,183973665;-1,055339677;-1,166754785;0,227160239;-0,252468241;-1,495662203;-0,225634697;-1,661353111;0,045427095;-0,646366722;0,120577803;-0,184544102;-0,569049183;-0,071170111;-0,885409012;0,9103716;-0,242194739;-0,236254362;-0,975499639;-0,230366999;1,419343635;-0,516640026;-0,415457977;-0,103338964;0,923313154;-0,167310213;2,017769413;-0,770040574;0,104995074;0,644099295;0,108874282;-0,207226224;0,440198194;1,340448845;0,853797363;-0,392108334;1,023693329;0,491449514;-0,790680648;-0,464384861;-0,578282331;-0,119012939;0,04364704;0,858096908;-0,106225891;-1,789144444;0,093302482;1,350826246;-0,494597394;0,664407336;2,23841637;-0,274616324;1,357188844;-0,386215662;-0,079641662;0,480041912;1,639214715;0,049714393;0,998243894;0,469880835;0,543675128;0,208613465;-0,370901227;-1,138624982;-0,180392357;-0,782918472;-0,747185738;-1,219737689;0,001989154;1,835188998;-0,873636426;0,233886348;0,834366912;-0,776718863;0,487397515;-0,34088551;-0,42939603;-0,686203086;-1,390937833;0,312903351;0,17548183;0,15286241;0,417251609;-0,276252407;0,667680728;-1,269658723;-0,153592145;0,629292488;0,449928219;-0,33328236;0,761402117;-0,083653416;-0,277105308;-0,250107785;-0,217717393;0,55493782;0,549834394;-0,78891477;0,862783362;-1,234748966;-1,208547608;-0,504614471;0,177655934;-0,147384923;-1,551635315;0,591456865;0,86172403;-0,44258084;-1,013889611;-0,861980506;-0,916140219;-0,50227512;-1,027870605;0,049908508;-0,687221003;1,155633214;-0,878839008;-0,243343918;1,425638075;-0,435519965;0,315230865;-0,320601199;0,075655354;-0,551854595;-0,714730213;-0,146026695;-0,934367873;-1,035520811;0,448739595;-1,735909524;-0,209784006;-0,964721616;0,560887135;-0,733602337;0,145120151;1,151368907;-0,461997722;-0,173312701;-1,364872047;1,13762204;0,74531037;-1,5217465;-1,474653986;0,039841838;-0,742969464;0,257096413;0,094676468;-0,914753998;0,471840481;0,036106563;0,040389061;0,056335656;0,320355544;-0,778060978;-0,886787583;0,344366449;-0,392277873;-0,36484259;0,721482638;-0,272867353;-0,290459939;1,211399055;0,175650297;0,219651544;-0,200105575;-1,995463105;1,096789647;-0,12868966;-0,574437357;-1,075461041;-0,725426669;0,436235196;0,50488965;1,078323325;0,549270057;-0,101485389;-0,471264084;-0,224711027;-1,1477073;0,026663603;-0,630516738;-0,069895866;-1,261429412;-0,03466406;0,822614616;-1,765131545;-0,421182206;0,320163471;-1,348467289;0,122133596;-0,805614184;0,61226697;0,283797989;0,41728663;0,445223747;-1,172329146;-0,120290729;0,805400889;0,779141992;0,278136419;1,598432526;-1,077083187;-0,705092126;0,337971083;0,155506938;-0,416097109;-0,606084924;-0,353408189;0,83321281;-0,164426095;-0,960908441;-0,043239319;0,823866772;-0,607390109;-0,109979395;1,730747848;1,839888528;0,746971846;0,225068334;0,904126943;-0,010643549;0,726174395;-0,366438342;-1,265625814;0,323919023;-1,080076561;-0,12281554;0,944921509;0,262642487;0,355330604;-0,066478155;0,406762328;0,443137743;-0,299517407;-0,773146856;-0,132859447;0,214565472;0,357610125;-0,024426591;-0,215860783;0,617917728;0,478262325;-0,661547748;-0,402282617;1,44263579;-0,670374869;-0,55540527;-0,777017315;0,5587915;-0,312520818;-0,365743137;0,47566783;0,168112633;-0,04412203;0,108291149;0,644206717;0,670358197;-1,236490888;0,829408154;0,242314512;1,05228477;0,435117069;-0,703397683;-0,647657027;0,202606779;-0,288345928;-0,221488705;0,123862286;0,807518789;-0,03042055;-0,900523513;-0,436344234;-1,761391871;-0,857598856;-0,384775234;-1,012356658;-0,847029555;-0,140520564;1,498778138;0,880353936;-0,680844211;0,53735083;-0,163832973;0,430716079;-0,839842263;-0,095228188;0,896174883;0,116855966;-0,085688883;-0,816149307;-0,209409276;-0,013614834;-0,234785657;0,636266247;0,132801035;-0,635086905;-0,14969078;1,989367842;-0,859632697;-0,548043202;-0,679602248;-0,156923361;0,053785453;0,289369524;-2,10621046;-0,714823762;0,192540568;-1,632251263;0,253081725;0,387754532;0,956451675;-0,499757341;0,398436342;1,08508459;-1,089773854;-0,425306659;-0,700823479;0,435398483;-0,696401987;0,068415608;-0,122416269;0,121391347;-0,730931469;-0,02440173;0,783563807;-0,287218833;-0,317182483;0,483754957;0,210221912;-1,197695699;0,593558007;0,227070013;0,254514726;0,18181854;-0,363349973;-0,062265999;-0,582500172;0,016055645;0,250925277;0,185371936;-0,970353591;0,847014427;-0,040497442;0,137924522;-0,988441629;-0,048467579;-0,892865825;0,045214422;-0,054166898;-0,735190524;0,410509115;0,1527539;0,310240449;0,61798794;-0,617916835;1,01004573;0,054994901;-0,46923463;-1,241709839;0,283325681;0,295001409;0,048448827;-0,083405901;-0,229306048;0,421606081;-0,409093548;-0,824727035;-0,571078;0,240933401;0,094424702;-0,87582857;0,537816456;-0,950108235;0,620237876;-0,222709064;-0,322816492;0,610980103;-0,514047787;1,045845149;-0,559385327;-0,480212047;1,191360921;-0,004174;-0,262789974;0,971337276;-0,311460275;-0,468847108;0,743450191;0,193213764;-0,434242046;0,180115282;0,243574249;-0,158139808;0,594273114;-0,042372811;-0,055008431;-1,095320536;-1,040952795;-0,242327866;0,137134838;0,305710233;-0,224586716;-0,033390512;0,054708062;-0,575824382;-0,314414311;0,526438995;-0,077888036;0,634379276;-0,437027804;0,100521733;-0,419382511;0,649352572;-0,527642339;-0,00514063;-0,428671418;-0,373301502;-0,426834137;1,003615771;-0,809336211;-0,065417721;-0,439859026;0,687704829;-0,942759087;-0,41944631;0,198422566;-0,912174133;0,689019564;-1,564619566;-2,10000911;-1,243926187;-0,327938057;-0,224649553;0,113390071;-0,502937398;-0,437606034;1,172683189;0,985042457;0,101937472;-0,896815014;0,615820531;0,602764187;-0,233668232;-0,230586595;1,360717164;0,848629106;1,015954021;0,506363439;1,371744205;-0,688401416;-0,18138215;0,35738155;-1,084902363;-0,250908333;0,322207164;0,292716064;-0,942525917;1,105262617;0,401041924;-0,847032392;-0,266166875;-1,10982613;1,160924938;0,151562236;1,681998415;0,071578597;0,018592579;0,968843016;0,416628309;-0,869401266;0,116413493;-0,938223356;0,554634289;0,917601021;-0,140234462;0,178760631;0,475981336;0,911632925;-0,212130994;0,235984061;0,61902939;-0,230753625;-0,278285546;0,295251585;-1,664622145;1,132321945;-0,529913783;-0,206978933;-0,154981297;0,676798649;-0,634464251;-1,243129827;0,04555866;0,482130206;-1,225209997;1,398656351;0,19970605;-1,072025729;0,344050629;-0,832580381;-0,775607471;-0,415251514;-1,149842563;-0,776608995;-0,145743205;-1,133490162;-0,088258748;1,481144362;-0,40656037;-0,048201614;0,354289509;-0,883163135;0,882380075;-0,762394941;-0,585941047;-0,406538852;0,449978691;0,338547233;-0,295878764;0,247767085;0,707583067;-0,463083303;-1,04662062;-0,223317396;0,168027911;-0,200815565;-0,551966563;0,597580169;-0,563908674;-0,770465205;-1,408589174;2,040909179;-0,007800119;-0,013524452;0,277565847;1,068127554;-0,686992793;-0,785553291;0,37454552;-0,724929667;-0,448867193;1,373294372;-0,507295709;1,234601165;0,063736883;0,558151443;-1,051686898;0,264583293;0,191260842;-1,873231207;-0,676178793;-0,73057648;0,257299881;-0,539637881;2,902954404;0,883690353;0,020090449;0,307391897;-0,651495475;0,864711748;-0,804131278;0,880965759;-0,694619631;0,374972565;0,393311736;0,106074628;-1,519077911;0,012581774;-0,542082776;-1,816633683;0,041356275;0,112392207;1,235331701;0,785277151;0,717836806;1,040978223;-1,979763617;-0,798614642;-0,822329852;0,413305729;-0,131240267;-0,502469942;0,044735;-1,379674499;0,560625475;0,39743139;0,163050911;0,417741733;0,5222673;-1,058705589;-0,967586127;-0,680288926;0,483524987;0,500409901;-0,824797599;0,388431554;0,109793807;-1,197765606;-0,518200989;0,045741126;0,05036307;-0,18829458;-1,847229694;0,05586379;-0,045777145;-0,550217088;0,310583114;-0,43742099;0,668552276;-0,499712893;0,256135557;0,233669043;0,701687125;-0,604536896;-1,855195142;-0,328050106;-1,023634308;-0,052769666;-0,255562241;1,201264609;-1,749552103;-0,097323364;0,714601309;-0,388535142;-0,619135103;0,603592447;0,752939327;-0,452557983;-0,565567061;-0,735195985;-0,312204566;0,503196539;-1,355932583;-0,436270811;-0,526116759;-0,671692885;-0,062032114;-0,734117564;0,416070748;-0,096196672;-0,118041213;-0,405979346;-1,30274102;1,40151359;0,216911217;0,829363291;1,123003836;-0,354193336;-0,31337785;0,120489216;-0,084210919;0,42000441;1,030890521;-0,110583032;-0,058018201;-0,730099082;0,635423062;-0,254904849;0,465230039;0,429413376;0,840640385;-0,802727172;-0,185812138;-1,028977202;0,384491447;0,8704766;-0,592942312;-0,685247945;0,970849475;-0,869196806;0,007979879;0,209292565;0,218036081;0,266080319;0,781252341;1,279005384;-0,362116101;0,279137545;-0,233807216;0,189548759;0,429327567;-0,084746656;-0,01989834;1,274006221;-0,176247297;-0,410768513;0,189766913;-1,559037431;-0,268107963;0,692432457;-1,128429787;-1,223540639;0,108431703;-0,227102568;1,163469539;-1,393924408;1,037420769;1,084875324;0,607680937;0,42933219;-0,654055231;0,277194992;-0,264032998;0,33712407;0,53914357;-0,773176084;0,99979809;0,35362478;-1,086220914;-0,699609377;0,23491806;-0,854477427;0,480099136;-0,582179979;-1,079218478;-0,822141037;-0,434007902;-0,731389701;0,043290773;-0,135576591;0,201883019;-0,401796433;0,243698092;0,719692739;-0,015088244;0,331015186;0,320429021;0,581843209;-1,421573708;0,289738141;-0,136888995;-0,627850331;0,252501367;-0,085290756;-0,193766094;0,31405285;0,655435762;1,183266834;0,26457053;0,522736191;-0,080764145;0,567824099;0,456039575;0,216641402;0,973852963;-0,479833533;0,061223477;-0,079005076;-0,929424935;-0,28807032;-0,91118114;0,469961679;-0,429783845;-0,028696332;-0,9705071;0,056357536;-0,29407549;0,175404574;-0,359502128;0,531715478;-1,270672543;-0,708570335;-0,934062214;-0,546240151;0,774762726;-0,183905211;0,356417496;-0,37193152;-0,214248116;1,432501065;0,737913243;-0,318993233;-0,554828578;0,969446686;-0,584631371;-0,340584232;0,39045798;0,021077381;0,460681727;-0,712186674;0,621941526;1,172060199;-0,889338361;-0,014615702;-0,263075683;0,338584228;0,912323214;0,238743002;-1,108388822;0,010237187;-0,911367437;-0,107052682;-0,549783415;0,060769269;-0,550651815;0,846863181;-0,59891196;0,209377284;0,997702717;-0,018244402;-0,235341624;0,544794893;-0,348315201;0,1472544;0,047889434;-0,048598524;-0,244226195;0,041860968;-0,049073444;0,615662314;0,835319039;0,218819274;-0,19857068;-0,435946681;0,884404652;-1,01613172;-0,626263693;0,913480231;-0,396667955;-0,45716478;0,134914357;0,091906048;0,557188827;0,643362845;0,135745615;-0,230434378;0,403699332;-0,024012052;0,136173074;0,573639135;-0,573596505;-0,650158376;-0,767788253;-0,992911513;0,94354598;0,17639196;-0,410077212;0,891231693;0,670268972;0,286285743;0,121790252;0,693246961;-0,166430853;0,606328435;-0,411272269;-0,430132301;-0,466401189;-0,872866994;0,307417005;-0,558376889;0,15062204;-1,206453196;-0,687080664;-0,169224552;0,257377093;0,084841109;-0,365221815;1,4116945;-1,436787803;-0,619410675;0,681483891;-1,098201861;-1,376671365;0,747811839;0,476106516;0,747845365;-1,219457386;-0,854177436;-0,183905726;-0,573223511;-0,891258714;0,544072866;-0,004762771;-1,037184403;-0,787519952;0,408519464;1,146091701;-0,223520971;-0,077143021;-0,29308625;0,543510477;0,346392707;1,150161127;1,063297373;-1,108086143;-0,617880208;0,574819828;0,784114789;-0,748165307;0,595799236;-1,044927579;-1,342221197;0,035208061;1,104498997;-0,826291499;1,168999521;0,266363882;-0,510256523;-0,681530736;-0,454355;-0,311610382;-1,215701432;0,68632486;0,419730381;0,092239235;-0,066837301;-0,210345879;1,181186071;-0,662399086;0,245811682;0,543974709;-0,153941508;-1,366800764;0,37160848;-1,425373176;0,350941685;-0,295760318;-0,603175597;0,736250187;0,85639268;0,107528032;0,397865882;1,523164197;0,354018327;-0,085211982;-1,01255494;-0,334919977;-1,483836269;0,013240224;0,156908337;-0,29050261;-0,704429243;-0,789798463;0,467057314;0,006395059;-0,021355699;-0,028295499;-1,389584621;0,851397205;-0,532655996;-0,886314407;-0,083656022;-0,66770128;0,364510004;-0,745869455;-0,92110574;1,31791512;-0,349731533;-0,659046119;1,555513389;0,168130569;-0,14452775;-0,055662786;-0,950542654;-0,107896595;0,155018275;1,331760252;0,090760209;-0,20920842;-0,622634965;1,319952058;-0,071583589;0,911915662;-0,849764573;0,408366284;1,5108997;1,326997467;1,915312084;-0,054911946;0,355723204;-1,072258577;0,118524551;0,248157322;-0,136638506;0,464616517;-1,11925869;0,328725843;-0,935052159;-1,160598345;-0,590575247;0,148224981;0,888683012;-1,013149775;-1,10135138;0,400402195;-1,073337633;-0,900892334;0,019617931;-0,4355082;0,868478421;-0,762114863;-0,300664808;0,698112928;-0,783060248;0,790965222;0,039638008;-0,648908626;0,173449641;0,74808502;-0,